-0.362966515431
-0.388504579932
-0.220784108514
-0.664696460399
-0.446587706692
0.382819366918
-0.406951340327
-0.333278316174
0.516511470644
0.322610500895
0.661588953217
-0.41747214577
0.617551213189
0.145030450863
0.0263548084268
-0.460793776112
0.30902656395
-0.76440300965
0.0539470572557
0.391159184704
0.113788484619
-0.258029735571
0.433713409034
0.0214732649377
-0.415479501172
-0.907810456646
0.0908321563671
-0.652553255157
0.414795762438
0.176125332327
0.495745903851
0.687743096191
0.770019372074
0.862176594594
0.650349150843
0.238026784236
0.483034132746
-0.513286957558
0.645017360062
-0.850461912983
0.850733882532
-0.750332521016
-0.242002669866
-0.153280239151
-0.363569084458
0.0297146374462
-0.128139259902
0.952678655538
0.124178180228
-0.285842049741
0.73079888501
0.895703425459
-0.118686203346
0.229853536507
0.976716566695
-0.114118722276
0.0196058231755
0.829125929775
-0.339165223507
-0.729062933097
0.484709266057
0.671365264133
-0.177133175059
-0.114239744061
0.190119599274
-0.860672620367
-0.652242871601
0.277516387352
0.443677314759
-0.495235823927
0.0314211787339
0.252082739991
-0.362999847831
-0.423339016556
0.948940270237
0.497067440661
0.397427240336
0.781936851767
0.4855162362
0.742410375527
0.174449360982
-0.170364351349
0.39426864754
-0.669118173296
-0.854135973322
-0.178228007598
-0.352269953505
-0.0971280712333
0.532282168962
-0.955912151109
-0.858694827334
0.293475327789
-0.0705145793066
-0.303027654544
-0.570823274119
-1.08397245671
0.77364340355
0.387465068787
-0.0718906268507
-0.00493460606004
0.205313358165
0.740799436145
1.03530099774
0.267697129692
0.211067774562
0.154863372667
-0.74883854251
0.659618782069
-0.514167249743
0.974721600219
-0.585534689552
-0.2598066704
0.728053368382
0.648838925303
-0.21045025553
-0.685232204557
0.675104900542
0.36944928513
0.192229414398
-0.485643796401
0.209968479664
-0.119023420734
0.790085386585
-0.0691788100111
0.518930160752
-0.120690386727
0.0673698531817
-0.01312386754
-1.19467075504
0.413152540362
0.811828882605
-0.0930539036936
0.801702215939
0.34435131526
-0.186200509052
-1.11934621978
0.481750316655
-0.504775801392
-0.633606006689
0.131837178772
-0.965485365763
0.634086510541
0.331824886432
0.821898383721
0.0177089743807
-0.638490426477
0.452940664691
-0.375557562154
-1.09588099291
-0.682112553418
0.742622847206
-0.419434066882
0.665042962831
0.673389191889
-0.895085238331
-0.665073291687
0.568173780105
0.976314555497
-0.906281501281
-0.308305315402
-0.502790742712
-0.943639062512
0.977042188066
0.239308005967
0.973938054153
-0.715229564868
-0.724975048511
-0.479172497875
-0.603781784612
-0.460131636398
0.810412760384
0.113563404865
0.791252018188
-0.279862874708
0.304042636708
-0.844170949464
0.658761410014
-0.930078732593
0.329239567061
-0.557148773213
0.86056359728
0.244354191378
-0.69066028309
-0.322648884392
0.581680332069
-0.475305606191
-0.818464925771
-0.183850220102
0.379629926584
0.342824966046
-0.461504721977
-0.345014137151
0.134188338461
0.259727661744
-0.494516918222
-0.487924616201
-0.267353872471
0.345505437762
-0.273311746081
0.644941315484
-0.420878801116
-0.539034542232
0.642937893729
-0.973202623004
0.666113684486
-0.157267678974
0.434776349498
-0.480209964015
0.349956410246
0.0254551928299
0.21786206838
0.224443491056
0.744155867902
-0.295667611725
0.151334582042
-0.380002819391
1.02264225153
0.702209566601
-0.587216357594
-0.381691547379
0.96318180966
0.0270678512875
-0.0261935946622
0.867471203139
0.238535705362
0.435982383372
-0.278679439272
0.917124253042
-0.519156400955
0.014850272482
-0.344632540146
-0.926146842179
-0.659247281826
0.207222393841
-0.918301388209
0.405711285312
0.862814719059
0.333815052166
-0.481868854459
-0.889765227983
0.389445394027
0.211796963239
0.199239970694
-0.190969989427
-0.370386773976
-0.763038166513
0.932559191695
-0.484383764313
0.6748146563
0.0686532918014
0.444990441948
-0.10291637341
-0.07021722511
-0.952609068582
0.493075888479
0.649245057318
-0.440786229436
0.6370434016
0.911624593484
0.896457946558
-0.420801303094
-0.0388245648229
-0.18094871407
-0.04365934543
0.279747027608
-0.143443634865
-0.627062148354
0.503876003702
-0.726613150681
-0.617975651975
-0.798670016915
0.572869946043
-0.0770619908671
0.609301948285
0.831514355194
0.483866963731
0.420120050515
0.643963756089
-0.468183819129
-0.334729904139
-0.712288305667
-0.0117395086926
-0.124670590374
0.424757839763
-0.84938856565
0.198655640258
0.207414712661
0.754974727519
-0.687257837662
-0.112098852283
0.483111890545
-0.680668581245
0.297410680846
-0.565736581659
0.598647066978
-0.0438295736114
0.744457406802
0.731775198744
-0.164777061468
0.74592644738
-0.698205909449
0.172101396849
0.899198576562
-0.0606873280286
0.661328346897
0.447706005687
-0.68766593581
-0.379237352147
-0.195584465962
-0.287404131988
0.719663964492
0.427484914407
0.990540202718
-0.904809317739
0.447415269298
-0.387294818496
0.0475907837639
0.747660660334
-0.828673682473
-0.286589026635
0.699715554416
0.18011496153
-0.0236792106632
0.225873908379
0.707931930394
-0.399246922385
-0.444533573508
-0.680854838171
-0.139478758573
0.609184684686
0.835187016961
0.159489452237
-0.466978577745
0.839286354473
0.935044714727
0.468987083169
0.119967910667
0.501124230369
0.598030100691
0.575544894425
-0.261168470768
0.67694258486
0.339875036418
-0.701946715137
0.381839920661
0.0586497129649
0.926986757803
0.0388563723465
0.185457884642
-0.250175046069
0.259626087834
0.571491319868
0.504595263488
0.294774311765
0.00738322838682
-1.20412661665
0.0654743782353
0.0689046123418
0.166178637434
0.158098710723
0.194370763492
0.449303660532
-0.766904095639
0.397657778406
0.156885404314
0.985103584297
0.571852327697
0.766927397455
0.0405875912759
-0.40000681711
-0.722921817589
0.344888761588
-0.982696357715
-0.360881846437
-0.490385444413
0.793103903623
0.142586533337
-0.914403703919
0.465498172179
0.755661663845
0.157792866943
0.541922421239
0.90662264705
-0.277244700343
-0.0667750614742
0.144601560558
0.242207759996
-0.791170240654
-0.333516189954
0.108509617966
-0.501888674869
-0.640392546299
-0.25751382826
-0.331048512248
0.130190478574
0.78321417205
0.68230065805
0.458615178005
-0.375083829929
-0.366211589572
-0.490006281138
-0.177486121009
-0.739930509301
-0.380939594338
0.508655221533
-0.400157991056
-0.0704359755102
0.926352536784
-0.590421441892
-0.045077026298
0.364043616942
0.128360912669
-0.372151329779
0.719460057295
-0.208636260694
-0.263443823036
1.01387049301
-0.384670474523
0.253147231076
0.229854466635
0.599942227875
-0.0585396221166
0.0354294286323
-0.371741595534
0.362621647852
-0.802167893349
-0.4966748231
0.935583403036
-1.16365661431
-0.189846440683
-0.00191381095043
-0.816536344758
0.816748346598
-0.919521839578
0.214208222669
-1.20650828428
0.86559903181
0.818148929461
-0.373258661096
-0.708778533988
1.04233347946
0.445469954153
0.17327942004
-0.232337628747
0.745335950683
-0.195989891438
0.900364316183
0.863319789687
0.123057057502
0.687594824743
0.533542193748
0.644841759346
-0.82905646593
-0.613053423644
0.0523893294407
-0.341286998193
0.691706926412
0.00351011780357
-0.707587671107
-0.872109056149
0.496678481604
-0.0857521784302
-0.411704101455
0.971658308005
-0.718735192246
0.0255316557388
0.342495935044
-0.401118131944
-0.835463035629
0.203620202604
0.512577020299
-0.274881358797
0.711426720977
-0.922455650825
0.66446469314
-0.735342296635
-0.531120239536
0.595365955323
0.508496894169
-0.129331856647
1.00932051802
-0.978952111325
0.981892410736
0.865279024632
-0.9225711864
-0.169380332251
0.12868860897
-0.000915124370734
-0.917722942546
0.952443767833
-0.827689062227
-0.122789180305
0.552147723304
0.356889642789
0.627008147719
-0.951060426428
0.784612058886
0.756290913592
0.198585672717
0.300760193379
0.390193393205
-0.825290771256
-0.212694364462
0.209407026724
-0.60025639769
-0.734143748983
-0.724556197134
0.452321853379
0.109996780816
0.251306390802
-0.475633857779
-0.689362302666
0.65073213206
0.597010724147
-0.0467005062365
-0.771194842404
-0.802430755221
-0.454684298057
0.2994206458
0.773582801738
-0.228278340371
-0.137058892518
-0.158812166932
0.567164174776
-0.72690876199
0.190021613148
-0.13531438719
-0.548702317594
0.191620826442
0.304240632174
0.369463659107
-0.955054366669
-0.35366407148
0.810923040487
-0.40496581323
-0.0972372808245
0.0951379683718
-0.195688091944
0.068545615059
-0.686157010166
-0.573479882394
-0.779583924855
-0.82087549764
-0.675331389025
-0.370672435526
0.0760705254365
0.283484646313
-0.827666327117
-1.03943715188
-0.403729380604
0.396975512767
-0.387862293579
0.17991822193
-0.319200060832
-0.246051751528
0.0903548855327
-0.740766202481
0.402139074902
0.31082862347
0.507825076194
-0.807502422082
-0.859161818145
0.453951525192
0.206434081257
0.826838402034
-0.514362251459
0.680375070531
-0.422465423618
-0.656673883018
0.0959615843657
-0.692886426221
-0.0832353056508
0.832929735002
0.525774056484
0.34655030759
-0.865963275076
-0.645605268592
-0.350498120339
-0.945526881169
-0.509831403747
-0.927311665737
0.822812038858
-0.46469855137
-0.509125374991
-0.939847257121
0.320588056356
-0.780977373135
0.88263404726
0.530512589844
-0.500788739446
-0.982794429851
-0.663943099907
-0.287759345579
0.587068378965
0.666985279518
-0.103919739244
-0.774541523322
0.658180888254
0.136599330863
-0.0970606797132
-0.799304670642
-0.842029705165
-0.063259049453
0.647933182529
0.469004862313
0.360356164671
-0.963258299434
0.344388816636
0.234231994784
0.942856368069
0.112508067065
-0.472396875873
-0.411715533759
0.319245543258
0.585501545876
-0.887053955272
-0.813310701549
0.142735559209
0.132423367408
0.422955717175
-0.42655985624
0.746595836073
-0.627700798152
-0.145265098383
-0.930182299539
-0.118628965574
-0.447196403328
0.652740709947
0.0591218461914
0.0567899453494
-0.891457714313
0.147801422365
0.376752378825
0.219962915535
0.971566165763
0.589742713116
-0.192481531169
-0.900824799336
-0.899260788937
0.859955113934
0.614449361513
0.106180577871
0.831117460318
1.00053756945
0.045424893975
-0.0176072653396
-0.705466064177
-0.0611239269587
0.42341442367
0.00555646311131
-0.121234778495
0.139274111467
-0.50874635453
0.928250435798
-0.139626205634
0.00599080863916
0.097051228201
-0.245901583911
-0.00752865764993
0.225301805193
-0.79056913657
-0.191156553872
-0.934741089479
-0.0575022474365
0.389259962238
-0.325025703013
0.641169989726
0.619490088054
0.551640504458
0.26042529706
0.451565556359
-0.887229745481
-0.25595128555
0.742919439595
-0.355880053551
0.0286959020073
-0.330233158742
-0.866402979394
0.858858487915
-0.378564848661
-0.73937184573
0.764315485427
0.975542847228
0.422676918887
0.0525654850658
-0.488539238316
-0.244537725529
0.669547469959
-0.669225225674
0.570260203471
0.906463473401
0.386242870384
-0.386685089004
0.216010755595
-0.457349496783
0.766347647117
-0.620136674902
-0.398036793488
-0.497982160596
0.0856394339496
0.905500518284
-0.02288406573
0.0896780567146
0.913000098014
-0.635991785398
0.971543664741
-0.418280375855
0.781928328235
0.188072945004
-0.00716665147477
-0.455527011231
0.668851376878
-0.611894379163
-0.54980109607
0.370313791816
-0.418225966675
0.847091025317
0.292516914087
0.407399932051
-0.743233596626
-0.824352514609
0.0569632579226
-0.843131222148
-0.431151303201
0.495720354127
0.226867194505
-0.0843799537367
0.512571268701
0.486606550824
0.595116853895
0.559399957671
0.807954417332
0.875493429675
0.0893114478746
-0.358056221004
-0.677708524689
0.13243989424
0.47456626737
0.812768507862
0.293411974722
-0.688171778347
0.578908836222
0.536541527527
0.346338997705
-0.496369348743
-0.714618092976
-0.321642149706
0.263758043242
-0.859171447817
0.379798785365
0.455386954698
-0.572230524657
0.948096992682
-0.818167144747
-0.0819478407018
-0.591544911519
0.0104126285955
0.951697057311
0.211992020813
-0.421710650907
-0.748963291251
0.675739270255
0.866884014275
0.923483878455
0.762373096576
-0.852003178234
-0.981300357823
-0.696763701185
0.441837979056
-0.243527074651
0.450986403588
-0.855122398715
0.427813800737
0.146037915132
-0.989438126045
-0.483177814648
-0.15274359075
-0.348658634467
-0.144443267351
-0.895280223637
0.18838171599
0.356603140268
-0.331659077744
-0.775053750274
0.027203679493
-0.37857103205
0.842421480727
0.883959119153
0.54926278
1.01183219037
-0.82407032291
0.218656461317
-0.376200815583
0.18407840834
-0.484842903299
-0.4056918468
0.610333603487
0.78019993613
-0.764299110302
-0.295072710193
0.725523689068
-0.69034456453
-0.508006513757
-0.866005430868
-0.34863836757
-0.613675155344
-0.622724458413
0.194226056045
-0.0427614814671
-0.536178902745
-0.124240952941
0.949851762757
0.0980431816075
0.601538326788
-0.359767248241
-1.02115308884
-0.517542188496
-0.286547726695
-0.0316675761648
-0.0501035041963
-0.253672112423
-0.492810840628
0.139018318457
-0.159553573802
-0.410321044971
-0.861269712389
-0.670490017628
-0.408469587495
-0.799634517511
-0.851337306236
0.73960025041
-0.510917807773
-0.161651420964
0.958978624445
0.928346843026
0.79825538591
1.04210371656
-0.679432013193
-0.573589450259
-0.0220662909658
-0.913999532164
0.108203696627
-0.910211836336
0.809902094204
-0.517059906763
-0.613265525549
-0.166340564542
0.966626272828
-0.991561300779
-0.516124355682
-0.796245367559
0.315252307737
0.046582789531
-0.875114897726
0.640379896306
-0.433549047643
0.603994481788
0.957206837659
-0.564048604402
-0.597061917408
0.525447539021
0.377044631635
-0.676413559159
0.33883279189
0.276846535838
0.0908190765191
-0.139248597627
0.697639547007
-0.301871084453
-0.246162241597
0.931605333344
0.486187601413
-0.757811602307
-0.16458160378
-0.902213462089
0.0739573018122
0.789735574911
0.209347406328
-0.230607184819
0.55258262433
0.785702991809
-0.969155805489
-0.615554371486
0.601462633891
-0.412244145204
0.704902569136
-0.18935664772
-0.553187505221
-0.825126615755
0.0825638988821
-0.851704386718
0.572605674791
-0.835300484805
0.500956853778
-0.0145299202088
0.780839949294
-0.657780554669
0.905560660138
0.274150477548
-0.652001851864
0.296239259357
0.559359793584
0.167574201776
0.355634637911
0.218227369521
0.790268209147
-0.248775958747
-0.782486243121
0.465911368298
-0.0320811230741
0.701904051946
-0.256141257306
-0.391217697317
0.562784508455
0.198699652598
0.0942772849921
-0.242219965871
-0.55416369713
-0.70766531638
0.0997121101844
0.284505858078
0.379917559504
-0.241899806981
-0.672625020977
0.112966043573
-0.767525152171
0.842871488653
0.20583621223
-0.927314215004
-0.680821278915
0.598299419113
0.778752886202
-0.0286678221072
0.18056412097
-0.905761539841
-0.890522713083
-0.404951902323
0.654396983183
-0.533173518628
-0.106104375746
-0.49000052835
0.27015159018
-0.662101381054
0.654510636624
0.945396390959
-0.820194134419
0.533803768265
0.542628988957
0.174374305159
0.711554354309
-0.362075192267
0.074403936497
0.621903073002
0.0129242342337
0.749972871335
0.618194233656
0.341700354893
-0.29674286124
0.669515088263
0.439705539116
0.631423049292
0.053782269497
-0.46688525637
-0.581287080541
-0.735110019532
0.658846333375
-0.335294731621
-0.00634957319068
-0.379017266438
-0.111665856406
-0.396844831342
0.42583588693
-0.866984395324
-0.837372499702
-0.514918724102
0.293853994554
0.398346911982
-0.332455096845
0.691392601979
0.793794207893
-0.237920284058
0.776188088054
-0.110585762659
-0.57169679359
-0.20134792059
-0.556921311386
-0.907607716172
-0.695354125371
-0.79576947159
0.512548680121
-0.829579897396
-0.685634116166
-0.826157145485
-0.572462022875
0.81552128841
0.242464235771
0.845833858175
0.650156715621
-0.786336005847
-0.448055888486
0.630977025663
-0.39389288177
-0.847420505004
-0.918199075902
0.763581331191
-0.35132591847
-0.766219838058
-0.824663097307
0.760201651564
0.534076976623
0.644778599372
0.887133019003
0.949738336028
0.569452521751
-0.905237378303
0.492890031988
-0.724222254802
-0.907872029004
-0.102993066036
0.684648946867
-0.559946133102
-0.0570242756242
0.693696755254
0.797499879041
-0.68404381404
0.884764363258
-0.157613112301
0.0938053739279
-0.562551997218
0.0675510212685
0.148861495666
-0.648768490572
0.487916671412
-0.597627830006
0.534109675404
-0.665128096558
-0.611693131737
-0.439938286557
-0.62938511608
-0.458470892559
0.65545144296
-0.695461277999
-0.804172133538
-0.233728211368
-0.310628079008
0.770285554588
0.626938440179
-0.444312928641
0.424526310319
-0.91490379003
0.982906857071
0.0153043833312
0.283881672182
0.91287193385
-0.755273075305
-0.793588714707
0.976164845799
-0.119095209879
-0.129384728651
-0.461749683938
0.659418897871
-0.976188452283
-0.943050960448
0.431821217434
-0.736574105213
-0.337072706095
-0.36073229798
-0.412206104697
0.0930424794387
0.214436606329
-0.354904028835
0.623121427358
0.014070573689
0.0884030445219
0.260834032829
-0.823753773072
-0.590106537441
-0.825542684349
-0.115317646533
-0.866575208096
0.917920366068
-0.00551213154078
-0.59928305008
-0.316076949402
-0.647780879126
-0.413622206832
0.0649729305965
0.0203266112544
0.556441062652
-0.849794831628
-0.832173505668
0.843200908747
-0.0834910131329
0.162468918052
0.757537282454
0.365427293989
0.510500610501
0.134728935427
0.121473986983
-0.199663455851
-0.0924995031689
-0.696969439727
0.945592565158
-0.251632630676
0.870196089518
0.900102835188
-0.706378868743
0.638244679001
-0.45236625584
0.622026390312
0.566650819347
-0.291648130453
-0.887446684622
0.383761739138
0.935436235336
0.43184840897
-0.110084800228
-0.708073809981
0.173400727272
0.943963443666
-0.50637676826
0.834870724902
0.313849263807
0.849613477471
0.988418530441
-0.548325725713
0.186651287801
0.787511350836
0.566376598676
-0.791989819
0.222750135674
-0.0660495118202
0.112497124271
0.474827566949
-0.805185074711
-0.733226827778
-0.085922739265
-0.234513232724
-0.978321882
0.0399722928625
1.00549618185
-0.639605039264
-0.498887219478
0.84981649248
-0.357634537135
0.933425008484
0.21264827379
-0.818152235399
0.766306408504
0.0203228379365
0.386735168155
0.190462782466
0.876215809698
0.380344477092
0.880670686164
0.556106169073
0.150963881189
0.541740588542
0.64274485474
0.707902367305
0.0326056589628
0.00920458972537
-0.748237167483
-0.370889140589
0.87935208547
0.102521375226
0.290462485282
0.0123718110752
-0.872806785585
-0.712429445214
-0.811337773087
-0.189175928833
-0.817752696685
0.992953940918
-0.898422484858
-1.09801858059
-0.321283806802
-0.339364867439
0.990964178587
-0.697326847734
0.547243656247
0.292439299022
0.86659207944
0.622079134912
-0.703775184455
0.605956888245
0.729335360055
-0.0237691501454
-0.102349538013
-0.509138456434
0.812896290927
-0.33476511871
0.738796426095
0.7306316606
0.776738046634
-0.584600743905
0.257638756154
-0.0592459666913
0.265364331623
-0.183830183863
0.71260036955
-0.698694562588
-0.0624551840345
0.759043901581
0.123799588246
-0.572091259592
0.13680085352
-0.51666323231
-0.898273525066
-0.894252544262
0.99623503959
0.237670786182
-0.0903814145731
-0.0351989956541
0.868716583275
-0.036766270615
0.37194716364
0.0251323797096
0.750634117382
0.54868815654
0.297664778797
0.824985983767
0.528912418788
-0.394552654099
-0.541034500352
0.59041960112
0.241194052895
-0.701788460421
-0.863048342926
-0.324786474498
-0.32900159542
0.139650963774
-0.950280228616
0.110364535953
-0.605247243391
-0.920931753135
-0.463421289685
-0.239933018669
-0.493299607966
0.473842939606
0.053020073045
0.366096736823
-0.237293414427
0.795016236405
0.595237402742
0.522544925377
0.611955972137
-0.198702419016
0.501834729594
-0.863962529239
-0.390529349781
0.356592959128
0.986937521606
-0.25664900074
0.921344803944
-1.24331804971
-0.626673235483
-0.33999277791
-0.76065639242
0.815034016188
-0.551340619363
0.478193020251
-0.13759663481
-0.895413844898
0.653488428209
-0.863808320829
0.0406053905797
-0.229726879893
0.158612898981
-0.862174486487
0.180453084378
0.941778965656
0.196041969975
0.209397919651
-0.6222299473
0.476089456658
-0.240493426006
0.989954310087
-0.88765162606
-0.805951640397
0.102335177566
-0.901012729779
-0.358329569962
0.435354637186
0.112108418824
-0.509964375013
-0.113773567531
-0.088479541655
-0.918585419928
-0.627689730257
0.7238910766
0.667041193649
0.309331989439
-0.634244127982
0.444743225383
-0.128216871827
0.89557628271
0.541570564701
-0.136356367517
-0.421396331899
0.427453519308
0.273183894984
0.111791182413
0.692507536254
-0.422594608983
0.822148503639
-0.148438242883
0.96690550659
-0.738774674243
0.0772786107963
-0.16414307461
-0.507952395289
0.783144934448
-0.398111047144
0.291764768157
0.236127286673
0.712205651986
-0.579212014744
0.972321017462
0.566297662817
1.02269504996
0.69391147939
-0.627334878561
0.174440428101
0.566937197393
0.714199169175
0.033022554209
0.463573620159
0.0424269003
0.726064306039
-0.0731459746132
0.718687873885
0.645973768895
-0.423630030599
-0.947469007335
0.626796399708
-0.0948512085818
-0.457049962093
0.730997303626
0.765552802763
0.599891947333
-0.297621725393
-0.704220268198
-0.47797484154
0.229742599936
0.348325300263
-0.748917389863
0.177672768586
-0.247292020097
0.707254111238
0.190884293208
0.744321285445
0.228935321621
-0.28517003237
-0.59555722951
-1.14352333642
-0.403452135714
-0.406179906079
0.421236281343
0.996709712298
0.220443712482
-0.529094098717
-0.0640320641218
-0.866714298635
-0.253850012264
-0.683614469983
0.192455775551
-0.176764837875
-0.642303150027
0.244855664059
0.648126691269
-0.642942662983
0.528010256737
-0.741121207013
0.85560287407
0.709288599415
0.107263462271
0.553854368999
-0.910964046809
-0.0578690582646
0.258808288716
-0.668270635578
-0.519486234867
-0.339824861535
-0.597278783963
0.511480101553
0.0807822226254
-0.236474889968
-0.696270024619
-0.597102916296
0.982499508536
-0.408961033853
0.222783381067
0.788748402275
-0.605621380972
0.478656249315
0.373247472453
-0.784440257776
-0.299536873
-0.225165127588
-0.945706395485
-0.802459490397
0.273091685558
0.134621446051
0.903011702232
0.0454660861449
-0.381190933183
0.541295018323
-0.0502004324784
0.0622875487132
0.791302428614
-0.949280624219
0.0457214600211
-0.945149018472
0.245108405339
-0.328802609529
-0.739550616865
-0.699856817012
-0.935079754853
-0.237696411981
-0.759437867984
-0.948225472242
0.41633176304
-0.235843501123
0.408275917793
0.876552806609
-0.452977331349
-0.734174601386
-0.3337324629
0.165921314767
0.668477802887
-0.415643417021
-0.084890467081
0.273836342471
-0.390189820711
-0.45510375159
-0.508456541977
-0.379327168387
0.33237653938
0.745880393851
0.985172728583
-0.608567815367
0.643013673245
0.729121676128
0.40637518425
0.953577461619
-0.860263991783
0.974992828508
-0.312936136486
-0.0295220292016
-0.519256956815
-0.777828409937
-0.113198910226
0.270143022308
0.410702490474
-0.514751013048
0.098094456413
-0.520618457229
0.87791110273
0.19697714172
0.0375897137369
0.980709677727
0.307461771643
-0.616132653243
-0.649352029799
0.976945401007
0.0698546260781
0.412928168402
-0.811747203032
0.72656166129
0.671847926633
-0.0595541070501
-0.622309080424
-0.754067299326
0.23096808368
-0.873726344772
-0.149722674481
-0.464665137654
-0.239509858377
-0.266528518079
-0.264597748304
0.585133616882
0.587617671555
-0.435672506869
-0.725367186176
-0.944386105738
-0.647724191211
-0.12861085194
-1.04642307519
0.861750316461
-0.327210941561
-0.0714414651123
0.514442393769
-0.541176676127
-0.750913014375
0.669607197797
0.873979890328
-0.336788178792
-0.272435609809
0.728083259361
-0.502194306714
0.958161633789
-0.846630867749
-0.342609093292
-0.624629821515
0.89664921396
0.922477128577
-0.935048829441
-0.00745824146802
0.098361671523
-0.429818185244
-0.890501351979
0.761143381868
-0.318076758395
0.643326448133
-0.309287284528
0.685156484582
-0.119177578499
-0.659050965287
-0.891302543878
-0.431475060725
0.504628046773
-0.168994962337
0.465831929854
0.683005664143
-0.0166386798377
-0.933486760534
-0.559927038262
0.463695495823
0.646287406401
-0.568992905567
-0.426784125133
0.474531506566
0.0371109708772
-0.0929171877767
-1.19259437131
0.0932130530416
0.588271190125
-0.514785946019
0.62701808779
0.343496531934
-0.679127156383
0.699482441159
-0.31438234202
-0.241296998856
-0.161579660453
0.128024854922
0.107278222259
-0.831376973502
-0.470319696617
0.452475794087
0.55035680593
0.52795908763
-0.8179534631
0.159854126553
0.739418932256
-0.836364412322
0.387819354735
0.0646505470299
0.709065344181
0.613937537828
-0.0958744458122
0.675608573367
0.164889931136
-0.136799563069
-0.938857359442
0.861226227323
0.553642398146
0.138077189327
0.723085243525
0.0130966871696
-0.82724718511
-0.572609135071
-0.940913175903
0.917219516889
0.432662870769
-0.148003347619
-0.964055077471
0.483959274885
0.0376706566693
0.213424408373
0.391039667817
-0.428493457816
0.53786313961
-0.332201703418
-0.293128826486
-0.697776198746
0.850032711635
-0.522324839549
0.144251254021
0.678634822991
0.250940557203
-0.733196611072
0.166491085621
0.768680993548
-0.750660034554
-0.150319134258
0.503333967863
-0.107002050373
-0.155073479895
-0.263387068285
0.281438956677
0.586527010479
0.63603255417
0.231111939967
0.878506309381
-0.636141323995
-1.01510564633
0.26742805318
-0.967380137475
0.586789571129
0.438937712362
0.647407870307
-0.821868723164
-0.26949006853
0.153559876134
0.864392573244
0.317218975195
-0.793304540639
0.071082607842
-0.656221119711
-0.0647430913626
0.206410341848
-0.794133801236
0.265759527417
-0.617174693971
-0.866623430895
-0.810509216188
-0.386605981066
-0.272784167176
-0.568136234127
-0.809742608371
0.48840453064
-0.777023528583
0.230858107115
0.0823368046759
0.330938355727
0.62212508873
0.736744625068
0.442191895485
0.145135130666
0.208231241857
-0.142877753908
0.233030969924
-0.981717527957
-0.98099059802
-0.523705097563
-0.707782912145
-0.461050461655
0.862984421427
-0.683573475396
-0.735012908158
-0.939165286598
0.413532323558
-0.279253254415
-0.947956800783
-0.17237043757
-0.0968646530973
0.421503073974
-0.600286358144
-0.370353745479
0.47830846232
0.571193076603
-0.367183351892
0.234271756313
-0.888980417702
0.121914857051
0.937449237898
-0.384840355213
0.526068134073
0.9144637346
0.462762138954
0.205124335056
0.111342001149
0.730788310455
0.385750488267
-0.604432149428
-0.600513154709
-0.234857544935
0.218651868271
0.262986116107
0.738404734893
-0.544533068256
0.722634415803
-0.433555215199
-0.453768182183
-0.288404095749
0.434007592339
0.030931103155
0.781736800674
-0.653855930048
-0.528406570078
-0.385137817934
-0.3516181007
-0.50888370497
-0.726028209763
-0.331777394158
-0.894579752194
0.245662357728
-0.092282843854
-0.434047645065
0.401030908992
0.555888005356
0.298996199578
0.731618147667
-0.108932344316
0.515417375286
-0.0657674431934
-0.851487928027
0.876450746075
0.823593775198
-0.231919986037
-0.796154686773
-0.223412540276
0.197735283276
-0.168417548859
0.877776131441
0.405345305052
-0.997609510865
0.042613592443
0.550838414627
-0.240295591626
0.505818994344
-0.790498656458
0.325403051564
0.0872163526957
-0.972162380512
-0.218394987925
-0.711709724217
0.277856201878
-0.401927884586
-0.660774436649
-0.59547874889
-0.450961310042
0.320486032201
-0.425252126369
0.785989399356
0.312957936553
-0.352975042621
0.775221100067
-0.297677542083
-0.109054786957
-0.824564418933
0.28676292335
-0.102010587072
0.534215064747
-0.310446802816
0.770961855483
0.327769404176
-0.429632017314
0.841132195376
0.881577431754
-0.0473763161903
0.482719215754
0.46020920336
0.247494196027
0.0528303404095
0.0399704160917
-0.131111920321
0.934354579875
0.633731851065
-0.538278691912
0.367550049183
0.401722957179
-0.195571851485
0.358259687344
0.643776217917
-0.344864553487
-0.453625783942
-0.939244605274
-0.168943329479
-0.155707999345
0.335386596423
-0.249560724776
-0.52899373673
-0.0452064130176
-0.754786369927
0.874042822721
-0.823860890042
-0.0595280039003
-0.605947885277
0.566204564888
-0.680211912595
0.787087954467
-0.0148902589791
-0.974939976741
0.879935264685
-0.428386392399
0.42089302826
0.523661267944
-0.808084589693
0.636399080276
-0.353426292393
-0.496416380618
0.767480538671
-0.87565982129
1.0598871229
0.697717812174
-0.904564959968
-0.74085222189
-0.299006195662
-0.319804921678
-0.335809048092
-0.328319970139
-0.316297204019
0.835881873436
0.299373873008
0.232005687687
-0.0344963911225
0.534024270018
0.561606876837
-0.0730651950489
-0.614852984691
-0.99279486498
-0.379624683496
-1.08276420165
0.0874940448453
0.111648180908
-0.363646392453
-0.497681508484
0.829401927204
-0.133329464771
0.769918330994
-0.521625527736
-0.193106810793
0.561160379925
0.340762989502
0.570100287383
-1.2166390415
-0.133647948921
0.684640112784
0.683184112189
-0.636740004897
0.778535378101
0.672590888723
-1.14485278577
-0.00996862402618
-0.659860402502
-0.673165307552
-0.551567415182
-0.0305702448145
0.817673730113
0.927329580808
-0.463067105321
0.0644561417935
0.166327113751
-0.180866279633
-0.436947873002
-0.0153509602736
-0.782726028595
0.209273211341
0.378408583085
-0.0484773335447
0.676844498943
0.923477547655
0.733339061003
0.566227280526
-0.45932015002
0.043699637951
-0.232747756457
-0.17957141499
-0.858327872414
0.961532002357
-0.749216206929
-0.630692103835
0.509833226259
0.155405869619
0.380270093322
-0.0286369038909
0.110362622746
0.857958663261
-0.328394506504
0.0205426362475
0.765021752569
-0.369716429781
-0.101302084594
1.01348338561
-0.319349101789
0.536860277556
0.128058256403
-0.797328747481
-0.400662628202
-0.941555975932
0.525308613431
0.531532490497
0.00802091145246
-0.913404619254
0.938119604749
0.111642681906
-0.220594939619
-0.888625005194
-0.3969431175
0.682071358558
0.704372076887
0.979997683771
0.445811479948
1.01135150945
0.923864786205
0.899941013666
-0.07949560951
-0.102943602474
-0.778300030981
-0.298315486954
0.464261583626
0.343984070869
-0.385133345914
-0.847740423232
0.854565053041
-0.852847701976
1.01631349706
0.0206070850248
0.477153422638
0.193444700209
-0.729135938091
-0.41559835542
-0.37465544456
0.972066093192
-0.18876229352
-0.160388341454
0.0382176873513
-0.685825416164
-0.149597191932
-0.58445818521
0.409974578823
0.628570023898
-0.922052283255
0.319407724868
-0.254491442517
-0.249718920348
-0.379649266665
-0.856190987194
-0.125454739037
0.406598854126
0.127586595278
-0.84364532854
0.271246202533
0.750225037724
0.404743746385
0.983700451199
0.923320571225
-0.877575993087
0.234653053828
0.670720996976
-0.59990866289
-0.795213829369
0.528470612298
-0.514126340989
0.0215409574328
0.238320295348
-0.272699011391
0.0508718293233
-0.79516591369
0.815163511062
0.478665042274
-0.591338707361
-0.534989622696
0.0881235065266
0.414637015919
-0.754887635747
-0.449693734179
-0.856119095497
0.734510441166
0.841687839758
-0.338718322106
0.725714167432
-0.22934925135
0.0170623883146
-0.454393380934
-0.791787049096
0.900729248345
0.626696936225
0.644557297991
0.819101210404
0.54206959717
0.273264823263
0.433785422636
-0.619151268547
0.81651080115
0.223715943655
0.793695498182
0.291356542463
-0.196298945195
0.712587977549
0.246355124662
0.737893918766
-0.958031044358
-0.0966333346569
0.333253959898
0.766555249734
0.825978671884
-0.144992576972
-0.782253914148
-0.243336111572
0.0897270015308
0.342802868872
-0.744435759699
-0.0737804071403
0.857554053184
0.163817452326
0.680439549685
-0.771030541201
-0.916763034258
-0.758341105146
0.27627783661
-0.897289451478
-0.0948925392873
-0.335867661659
0.733615312807
0.68156301318
0.114601235835
0.730651119934
0.260871768822
0.528597297508
0.885245421512
-0.466555378266
-0.542045045105
-0.344772866771
0.677656984262
-0.994047962609
0.330108364045
0.924303239005
-0.824938686109
-0.0411113470892
0.758432573219
0.689689760446
0.516977806113
0.693621054501
-0.0386222351459
0.241114577675
0.105616150292
0.374138551434
0.1597875056
0.714178364261
-0.72274673592
0.000961686181075
0.24389639995
-0.676022743652
0.990711048167
-0.562648189318
-0.922158084373
0.680322855641
0.0599375497251
0.30575386609
0.665155313956
-0.82177468423
-0.287897085138
-0.560931498564
-0.459954487807
0.511806340041
0.367842132434
0.824433371638
-0.369824525085
0.201158978862
0.99589733135
0.575159588221
0.167343004174
0.156703135443
0.344666291414
0.63851391261
-0.24585049041
0.93132388711
-0.727565588258
0.671199360871
0.0774142300261
-0.988942124393
0.184867305386
-0.0534864737239
0.237441771075
0.0205785447816
0.946047295547
-0.805143492249
-0.336540085206
-0.368445503437
-0.843329322626
0.903501511466
-0.765927326384
-0.874160778406
-0.541766991009
-0.730679171643
0.838725998114
0.425492124005
0.715972314129
0.617753471427
0.984890005283
-0.127058839149
0.701865234956
-0.283737120475
0.674184708328
0.317681454777
0.281279524146
-0.495855115047
-0.308870554129
-0.0944154510602
0.597423349933
0.341986798932
-1.17878073879
-0.0981218756312
0.320767183196
-0.778732771529
0.832562406044
-0.835730251216
0.795937697065
0.359865191906
1.00043018605
-0.320114890702
0.400391715057
-0.75526665489
0.52230867523
0.771518892066
0.0384555507807
-0.922187637995
-0.862336135919
-0.986744145885
0.341868936975
-0.727305953122
-0.330901141096
0.473475819423
0.697655431589
-0.452152648542
0.6037862861
0.973268585166
0.108633814312
0.889347451813
0.0336001424461
-0.237704312771
-0.616518006396
-0.818405738779
0.936680277455
0.470382707167
-0.619779517042
-0.210801491413
-0.0912420788135
-0.302355254441
-0.577497565767
0.781608458115
-0.880854312043
-0.024735197092
-0.578137293002
-0.55977155894
-0.348033928263
0.0645051509292
0.549376331328
-0.161915684149
-0.192457609511
-0.594540601089
-0.642868334234
-0.818058881646
0.0336931817097
-0.0999681209403
0.455676058786
0.48434895267
0.10225245363
0.314103934878
-0.611412234138
-0.876880358043
-0.167275829408
1.02296510309
-0.485568398931
0.773111860816
0.762562940291
-0.231909809591
-0.464807198871
-0.112037732976
-0.143374198212
0.134813149388
-0.354872952801
0.833087274238
0.361114071739
-0.00544588055626
-0.815403768442
-0.335973250063
-0.251657175099
0.64446227827
0.343638987068
0.644835531754
-0.298777744847
-0.498046050741
-0.333958454513
0.09222251663
0.449466240061
-0.855797250241
0.448557390792
0.0429069476466
-0.743595491595
-0.0615354283733
-0.775549254789
-0.400001462652
-0.296992993634
-0.297479540439
0.644945545431
-0.329829533239
0.269234134161
0.575724423914
0.984840960483
-0.413240724591
-0.705428482134
0.239737381722
0.72035970495
-0.327536535764
0.058185732231
0.698883537036
-0.395217594009
-0.360200839999
0.446556988268
0.223795249064
0.649696628277
0.120129760711
0.657634794593
0.165595915471
-0.184046260273
-0.910587308135
0.595787539589
0.386131018182
-0.909238691777
0.299105443256
-0.815698638261
0.502297989619
-0.395026704145
0.49396943832
0.0873547244252
-0.616038679373
0.369004014307
0.100178121839
0.536959454595
-0.941667437211
-0.115519219346
-0.259018941598
-0.626441834905
-0.182123910541
-0.250460522229
0.263911193805
0.409904501717
0.360249919294
0.705647833533
-0.702741946579
0.38246352056
-0.313299286988
-0.266991569711
0.726186405788
-0.725013374841
0.692850725707
0.556981221586
0.0715617881467
0.610378018408
0.959975765794
-0.720662792061
0.431482835786
-0.485568412359
-0.844804134811
-0.227654461578
-0.204911868215
-0.551108986884
0.0856336229388
-0.89175392233
0.201797162697
0.722598026168
-0.232494958854
-0.586239758061
0.731286317417
0.416953247534
0.397506018935
-0.663536399259
-0.727903879227
0.765955021914
0.11710219834
0.884853458027
-0.356100146906
0.545875189153
-0.442047930848
0.668210580405
0.754310977483
0.6103946372
0.865370857761
0.203112221557
-0.853321784409
-1.08825516666
0.510774922859
0.682733716674
0.725023716097
-0.136526046083
-0.318554421937
0.727226384025
-0.822870725681
0.350643513726
0.347796431256
-0.666728194347
0.0451253669476
-0.716391499495
-0.244292920599
-0.17714618959
-0.965789658159
0.0865055874153
-0.16863833428
-0.147765099732
-0.738381326967
-0.367587265435
0.225991973926
0.45048395949
-0.60429621524
-0.308375367538
1.03159876884
0.883222129348
0.085154421433
-0.106110831015
-0.750190744901
0.958990199899
-0.189462331785
-0.374176234627
0.278475323863
0.0173554539871
0.230093647787
-0.752712891995
0.690078697829
0.67036282625
-0.931215769539
0.462945178479
-0.615560771544
0.197612276541
-0.891356037854
0.848213353533
-0.101884048658
0.321195709875
0.745723121832
0.158301893669
-0.644144325509
0.689755724583
0.279285823376
0.912354248468
-0.855920135773
0.307254820578
-0.526665956735
-0.228860060362
0.436554112148
0.802434222981
0.462391731556
-0.891181622578
0.936790618879
0.74355639748
0.618069836771
0.333929918071
0.477503169104
-0.184536215158
0.753334927349
-0.595007370637
-0.188318159043
0.360705362403
0.571469505392
-0.943101069776
-0.830094518381
0.617159738973
0.867506034409
0.601763888391
0.287630083926
0.930583868432
0.455561481434
-0.716731646641
-0.323115108925
-0.9346575833
0.632559735639
-0.86823485714
0.316676149873
0.71893772742
0.190919201092
-0.785344585949
-0.919201041497
-0.748473854551
-0.333594208758
-0.531225899816
0.290037280486
0.747445004551
-0.644868574428
-0.164075657757
-0.643244054293
0.678887031554
0.369068766773
0.444022835659
-0.583871675745
0.717853620314
-0.86145369451
0.913984055333
-0.23836710851
0.4704305556
-0.73123931744
-0.242120576311
-0.880603473128
0.611523923066
0.42871724159
-0.858545154734
0.0950367801735
0.344069923761
0.95826055866
0.63548890869
0.578443491674
-0.378971289305
-0.907971356405
-1.21364892859
0.462271433497
0.596514146621
0.802085218665
0.779051641063
-0.211287352536
-0.679010936184
-0.55256253629
-0.801299242161
-0.197515496781
-0.416969388294
0.377788332095
-0.660376922195
0.330600606261
-0.616137255
-0.235802693918
-0.266074316057
-0.102154373525
0.942221155544
-0.308901707472
0.463663365197
-0.263221037406
-0.113741886778
-0.0718117152229
-0.329547282274
-0.0494742625318
0.290575126848
0.0279427087809
0.839462275135
-0.988128064562
0.442371515026
-0.164568075838
-0.429089005073
-0.020852206025
0.873133198205
0.0603283403753
0.256710775335
-0.862011116335
-0.553442816921
0.71727450593
-0.160958010578
-0.344768231899
-0.839614979024
-0.171861014626
-0.24608827452
-0.427884927983
0.136259168144
-0.320363380338
-0.96491809717
0.504193211218
0.540604288658
-0.372696526966
-0.951572961285
0.637793500662
-0.840576619497
0.391709565411
-0.562833096213
0.6880846606
-0.123566132775
0.424227167402
-1.11845038182
0.819468070048
0.880367155949
-0.538242500523
0.135364597672
-0.444745266206
0.52855943631
-0.0089823650929
0.932814651443
0.368289678375
0.450316798984
0.0942647603893
-0.168774126649
0.384463630034
-0.711664194812
-0.859855733486
-0.0435855127476
0.898623082219
0.287683056758
0.799399563458
0.213638422996
-0.248537510218
0.895086382385
0.280111786704
0.500216250878
-0.113619795731
0.897265360554
-0.458641375101
-0.959211341874
-0.885124670853
0.649058370119
-0.731080381275
0.719629928045
0.478412745669
-0.501466097721
-0.235707137865
0.0356748931998
-0.948946734408
0.0937303943357
-0.251886886902
-1.17080677618
0.362896766639
0.740497743359
-0.914650321052
0.87808104534
-0.228485425365
-0.847188114221
0.337858596273
-0.916859018638
-0.995430578698
0.102222397692
-0.865115735946
0.336059700031
-0.258623100478
0.916070631372
-0.921701887395
-0.141739061463
0.817217596916
-0.432906320646
-0.664883233435
-0.863016552005
-0.291834841316
-0.361792502428
-0.90521915169
-0.87927483542
0.735082151351
-0.204196769385
0.464233958954
0.315392583978
-0.997598574259
-0.704552194471
0.567355565589
0.563840396435
-0.413466566515
-0.350747628891
-0.781844027087
-0.812286105131
0.374070146851
0.290598709161
0.526398823965
-0.813353810588
-0.0993027479399
0.195816445372
-0.862777217551
0.643650834311
-0.408111276296
0.400910776019
0.977615889804
-0.788105317841
0.752373543926
0.242315714632
0.990495256807
-0.157099974101
0.355238440584
-0.153698111133
-0.967682893058
0.0839615051252
0.0376187910317
-0.59022937654
0.122013429833
-1.16226310359
0.438379614417
0.974198901626
0.595362794984
-0.45434065425
0.102487747232
-0.535670610574
0.014850835888
0.696464540033
-0.937068368666
0.415415877361
0.678066276835
0.288229110275
-0.530365162811
-0.512587104996
-0.14061280295
0.0233839804537
-0.0592237140632
-0.916176401027
-0.63705004773
0.782616751878
-0.164139630926
0.553519868448
0.657003070448
0.494474019424
-0.501847304519
-0.755707811339
-0.937179175997
-0.321524929935
-0.202982892429
0.782547158345
0.545612356304
0.962811469706
-0.72008248582
0.692387492235
-0.714238148222
0.463170125856
0.750172340378
-0.525973439743
-0.707172139973
-0.971275632258
1.06147269255
0.0563933379329
0.992106460893
0.436236334365
0.748146351718
0.0799440628549
0.846973517688
-0.398907174063
-0.108933277551
-0.919546895219
-0.329741942071
-0.100204101725
-0.963811404789
-0.240952442732
-0.819272098959
0.617984383198
0.47740216698
-0.806516243702
-0.673059694248
0.744288123823
0.555679942987
0.866421020676
-0.506938257284
-0.43837864549
0.709313438113
0.573740700399
-0.34821211463
-0.0480330202059
-0.70936332793
0.925194057735
-0.884995061147
-0.571803114483
-0.365464686176
0.92799634443
-0.576957919797
0.100525650813
0.32527951046
-0.240881992667
-0.725658216827
-1.05247777883
0.886170553731
-0.263568426883
0.80482045038
0.847432526938
-0.0294195100911
0.967278012846
0.0112426949603
0.209349548095
0.325831479627
0.877452974985
-0.0956903345423
0.6519847309
-0.896059708677
-0.803371738822
0.171618420303
-0.907922768159
-0.337106244594
-0.108365108129
0.719150449074
-0.651167086506
0.32231988886
-0.672926324429
0.620713799362
-0.76519165421
0.208973417609
0.69989509626
0.323730022483
-0.31861853849
-0.937007996188
0.436860136701
-0.78914584743
-0.733696338249
-0.745271909479
0.496094372026
-0.157898120784
0.934466728856
-0.32469146836
-0.160912566346
0.169491336126
-0.818762517832
0.871915399901
0.613656170365
-0.0661717020405
-0.549281561709
0.174310183947
0.610394533906
0.88443767404
-0.528535349417
-0.96233248143
-0.449757307903
-0.675545147272
-0.925558003946
-0.675144602554
-0.74634337705
0.302254993162
0.723544071439
-0.344449432597
-0.97041140597
0.373559996961
0.585884767222
0.180024446872
0.526856465434
0.451599839133
-0.465340942271
-0.219464327909
-0.0759771504869
0.543345592568
-0.38764089454
-0.868019040524
0.75579361996
0.282357616797
-0.800764424618
-0.623300040003
-0.492193475757
0.113612210867
-0.597879024564
0.000957811459062
-0.993888525047
-0.427120234626
0.378168883234
-0.217474788845
-0.483915554746
0.833837554761
0.498937262753
0.721302377866
-0.54695035252
0.915208625112
0.48023887291
-0.501693603023
0.608350985052
0.657105188087
-0.32834587328
-0.591304158062
0.588135667024
-0.558691845832
-0.917650211798
0.885850565926
-0.373876625145
-0.343143234231
-1.03133007123
-0.823066279844
0.752017736575
-0.470179195047
0.316406097385
0.866436835697
-0.188883515473
-0.543834515554
-0.396367697855
0.566388941646
0.44263896658
0.662424106313
-0.9548892086
-0.324409014561
0.561002130414
-0.125348448045
0.695675238179
0.920327878551
0.882563940951
-0.198627819925
-0.552360391606
0.491912143475
-0.0307543542865
-0.153507149765
-0.274452354071
0.825259515445
0.680807682585
0.0360530113616
-0.180839478885
0.89216656429
-0.103816001036
-0.302252500435
0.673554432465
-0.103266429769
0.325418935015
-0.904936762487
-0.218305828941
0.428661902488
0.459782616037
0.873245825256
-0.608146908178
-0.0780767367269
0.264322080724
-0.982103576013
0.208366196634
-0.0679300631686
-0.931857415391
0.854642339347
0.42072563639
-0.727034210446
-0.246819990983
-0.474779601442
0.177867634037
0.562168618948
-0.901912119841
-0.598263456621
-0.638853623918
-0.999471902352
-0.921947738313
-0.493956379596
0.179010242891
0.339539810055
0.00732519625191
-0.0509200076241
-0.318745751381
0.432985436298
0.567412351134
-0.159369109186
0.438455779689
-0.575077871422
0.197190448421
0.148219870687
-0.671945982976
0.408440828588
0.558918057636
-0.0188461247377
-0.656004334781
-0.715933064019
0.687776742926
0.713499506373
-0.895954976084
-0.815673329921
0.367360644613
-0.824699578653
-0.631916356168
-0.481266042653
-0.868647673236
0.351435550207
-0.549438287537
-0.0936462868598
-0.707101390809
0.73471131252
0.211773798529
-0.0235034304154
-0.552408070358
0.555865806384
-0.35461032412
-0.292520284013
0.888016560456
-0.47901547522
-0.0832978650369
-0.272552275502
-0.212522776892
-0.537876702885
0.572549067267
0.43867310398
0.952589036135
0.579074840734
0.266507667495
-0.0962302562128
-0.642227916737
0.152760404155
0.809957792759
-0.0559871376229
0.471641107489
0.882125526016
-0.669012580938
-0.960391435085
-0.49671819923
-0.82462205859
0.0742530872215
0.615204581473
0.837062054516
0.142774566033
0.43538800925
0.275692118986
-0.687660396306
0.0787202292076
0.940544751557
0.1050693068
0.336143267281
-0.0973769058414
0.155790029151
0.280947874041
-0.672536647229
0.981883904868
0.00723860868849
0.530408154957
-0.924195738529
0.195787886137
0.472326508681
0.928563657028
-0.389017957069
0.805491988091
0.942072340783
0.501555096912
0.338936080781
-0.342693596241
0.563963160282
-0.274776636093
-0.358861332981
-0.0551478070386
0.721673776148
-1.12361074446
-0.313586144169
-0.510715935622
-0.762042308441
0.638739698337
-0.253643432467
-0.390512391637
-0.0099498998767
-0.22162857312
-0.235665450199
0.245158311425
0.596012767844
0.281377578553
-0.994288004847
-0.76973883189
-0.588614973644
0.912979537137
-0.657898298005
0.193723331692
0.0903439290445
-0.475627630785
0.853465118465
0.0421786173933
-0.551393903771
-0.0758566255916
0.307566438239
-0.356394270878
-0.784228193941
-0.063662791626
0.430548943887
0.41591312683
-0.631627955473
-0.0208608001979
-0.848272014438
0.879581357
0.766073505326
-0.0763657089754
-0.0781359350302
-0.971008331078
0.210604770348
-0.466729196997
-0.315399432605
0.975823165792
0.0292580415557
-0.495384647413
-0.836542673541
0.11134944818
0.150470437014
0.543779787221
-0.089917487185
-0.29068148231
-0.644429059896
0.00513719628212
0.0235185747589
-0.635908533377
-0.483720690816
0.975723904163
0.233752652979
0.341244123072
-0.510127424094
-0.854559502736
-0.193522489864
-0.52074088669
0.0419095624027
0.240690772239
0.991157112115
-0.372439506348
-0.545091530171
0.94534455232
-0.215943016089
0.705968484044
-0.904720882242
-0.277628538176
-0.891615324181
-0.0192888588672
0.315829246415
0.832425867009
0.665307350761
-0.0777115852285
0.904570985213
-1.10699206766
0.431941045009
0.785792563264
0.475657850281
0.780296750708
-0.825911633964
-0.941043578643
0.309687216278
-0.548886691033
0.75117045428
-0.543170628705
0.682797616015
0.601912365775
-0.306733530352
-0.859432317475
0.274988078124
0.782976309226
0.0146862942256
-0.681740873419
-0.248791127433
0.259620587842
-0.829995477201
-0.961003563366
-0.846697702952
-0.538513855231
-0.911646979855
-0.700786031215
0.559874192247
0.283387438598
0.215486654518
0.143140758098
0.645702042821
0.845832017832
0.250035895318
0.34807802552
0.769289037783
0.663573775619
0.064951853833
-0.582742759009
-0.186976694286
-0.187271703517
0.0524786570665
-0.0914758548627
0.00247999709428
0.00499021197582
-0.640706718477
0.144685265732
-0.862372788781
0.207845352175
0.473194118872
0.162215800728
0.0780901020357
-0.427630498652
0.983769679193
0.251281707555
-0.715655184405
-0.419114445118
-0.549294121635
-0.173399907308
0.0855726268339
-0.628977333483
0.178935166764
0.3624935204
-0.355481727661
0.815393283795
-0.84701036605
-0.983014125353
-0.417082174692
-0.128135751032
0.853982587822
-0.927603621899
0.130796066295
-0.636787653949
0.157950363161
-0.793897174065
0.352474716355
-0.823472563419
0.370165739443
-0.56201365905
-0.721762174556
-0.145218956098
0.839770348857
0.459021416247
0.949664092911
0.302739256269
-0.321893147675
-0.398673308773
0.392001155429
0.504778059998
0.21343892679
0.306368989186
0.109745544158
0.430427486907
-0.95026413476
-0.775070539191
-0.113554335301
0.796156052734
-0.154866143415
-0.611209005537
-0.865947913313
-0.470444595314
-0.060628102568
0.79798493243
0.0653508128144
-0.872442410924
0.789349556796
-0.752971801216
-0.963591959016
0.0654078361955
-0.236905501366
-0.19914098907
-0.967897312814
-0.521203922039
0.8645159446
-0.782758641525
-0.286175272545
-0.992308717817
0.531794120579
-0.414892499848
-0.966589634076
-0.339165195135
-0.757705127048
0.618399660313
0.345590413931
-0.923686176781
-0.513493111199
0.498065652857
-0.89440498235
0.502815961134
-0.982616497456
0.36967526107
0.723208887828
0.456328605975
0.853892394963
0.587269679285
0.597066942328
-0.810465459401
-0.780952744851
0.260721383441
-0.370953920769
-1.08304812408
0.410202683425
-0.602964191552
-0.889835737305
-0.0766324180975
-0.12445431867
0.824653697549
-0.897295710735
-0.0918143172522
-0.708000777433
0.326895679319
-0.267672033576
0.904771541001
0.256090121261
-0.724521270805
0.557826671188
-0.583792246494
-0.328331793237
-0.58787931584
0.60267789508
0.524602699812
-0.00997984106725
0.971130523711
0.867546107251
-0.47376064929
-0.341476422791
-0.256320495502
-1.20268046342
0.976520894249
0.287733665491
0.354115057276
0.41907463028
0.0992399787619
0.0717869780556
-0.552977146431
0.304720055746
0.935155673657
0.00187040776706
-0.075176862377
0.215536065817
0.704780406199
0.644524845967
0.0576981945884
-0.607372319262
0.138822606202
-0.776786472145
0.136724166673
-0.258633140253
0.20184111229
-0.368657499848
-0.134053408295
0.996524658312
-0.362321580404
0.642931008589
-0.564936978483
0.69575492892
0.762127196479
0.527287399625
0.875973775393
0.938664935367
0.172240369175
-0.872445376652
0.943848681973
-0.751505626245
0.60288460835
-0.509733944558
-0.529885634494
0.578675971904
-0.350358282026
-0.462889253404
-0.436458901219
-0.812678450689
1.04839322217
0.793479157717
-0.235042294239
-0.981017198951
0.673308351683
0.919360578135
0.101866130468
-0.415203105843
-0.469937846496
-0.283074681726
-0.789681756611
0.579640596859
-0.411380710526
0.376200071726
0.84706699341
0.314768092831
0.718472362097
-0.721798573926
0.893265489219
0.818695779013
-0.861294179822
-0.684786278993
0.283967447293
-0.892528755818
-0.929030971828
-0.402123229695
-0.543450993973
-0.0886923175639
-0.262637996391
1.01825938568
-0.650368224899
-0.923485851234
0.453467600241
-0.563770598825
-0.0534794539922
0.0404198041612
0.86436882072
-0.485963535662
-0.492062307379
0.070761251119
-0.388706014927
0.642582567047
0.0686097751082
-0.247814545079
-0.125419606791
0.382006368347
0.976619080885
0.849980934795
-0.4880371245
-0.659449774719
0.991115222442
-0.305079623827
0.37314258365
0.548261156768
-0.651592992487
0.0108106962005
0.969256653878
-0.976218718832
0.957127422693
0.190410972577
0.0389261097317
-0.248964336242
-0.790617632594
0.0427809703336
-0.736828527721
-0.0617840752816
-0.618809942875
0.352157510152
-0.333467815741
0.904402559819
-0.657215821036
-0.831343986771
-0.293983511961
0.981293932607
-0.701716755876
-0.746971384347
0.650806328598
-0.549913477981
-0.0214791235255
0.396249366613
0.641873924441
0.892042833898
-0.230418337501
-0.27411947086
0.176043848316
0.739651870367
-0.867270462246
-0.22385522467
-0.248005029379
0.188069927707
0.203420263022
-0.830906052531
0.377067082358
0.29950815431
-0.993922546415
-0.339363799724
-0.0974170858928
0.99742828426
0.650828849146
0.90458371577
0.774598135922
-0.28221460719
-0.202348392545
0.691158476652
0.928892058872
0.436983994501
0.583805764761
-0.107228546102
-0.485757421599
-0.0645982633047
0.992979910724
-0.435425335878
-0.129296266897
0.0142636692013
0.69681496516
-0.397640311758
-0.854142203558
0.135457795888
-0.867555824131
-0.637904363016
0.0836560914884
0.276030167675
0.50105855555
-0.714137996996
0.610815992704
-0.535590221994
0.616651684115
-0.654726713894
-0.219368533795
0.309633287475
0.701074072199
0.291702550814
-0.82144238835
0.0685431781897
-0.274656720805
-0.0465846327084
0.349972383237
-0.027069003476
-0.753532103494
0.905676925528
0.523955367687
-0.265662301776
-0.087325911475
0.801963639323
0.545623592399
0.251932358004
0.848945203438
0.30080623716
-0.174370399178
0.526700056404
0.820256555438
-0.554382092583
-0.0613345184858
-0.203703489448
-0.295993859285
-0.012817970359
-0.411254990031
-0.32590450582
-0.389743273041
-0.646031937732
-0.0999018617571
-0.283046056611
-0.0196702095356
0.699714740586
0.924775922066
0.698382583044
0.0804062258875
0.59658080703
-1.06062700926
-0.32303205912
0.682192852493
-0.86749024934
0.681824895025
-0.924461658768
-0.341677090463
0.0708377392771
-0.0255003086561
0.321617386456
0.899412920846
-0.85072586194
-0.126007254503
-0.905072253122
0.547077339848
-0.28773467172
0.928894624761
0.86386380211
-0.61131933658
-0.974364946853
0.784576277936
0.321920708057
0.126457136288
-0.324537327167
0.942576467116
0.52176720413
0.745627368567
-0.942689135118
0.567939613671
-0.187194004831
0.686985300987
0.335499121936
0.391778618521
0.500308875851
0.395893584423
-0.955319033311
-0.0297669992953
0.530556319394
1.00393069875
-0.260417545315
-0.284327095988
-0.672374917934
0.286545972153
-0.385477140906
0.364191173167
-0.473224270953
0.659333821314
-0.45974281835
0.222591374735
-0.466302303653
0.240240107993
-0.267315225543
0.7899604017
0.653470165201
1.03502996572
-0.652864276979
-0.457595044384
0.606825205774
-0.525666773222
0.242636021144
-0.232715536292
-0.33881460426
0.27082070735
-0.586440156318
0.784494489462
-0.486203708343
0.954214797715
-0.0215265259119
1.0816886529
0.425878072803
0.368786870883
0.0760883029293
-0.49950017972
0.0863814812415
0.564899364677
0.272363889457
-0.784623560373
-0.635887609064
0.638450007169
-0.591641186427
-0.963933554951
0.574921727026
0.555052011466
0.125739847249
-0.726983664821
-0.894119268821
-0.141159740761
-0.97426309945
-0.751784261769
0.177256920613
-0.52155319958
-0.180283484217
0.55769645976
0.708792910633
0.760931195453
0.636186129325
-0.717240920739
0.187088307152
0.638264838718
-1.0112381916
-1.18713207416
-0.799151447862
0.469215129867
0.177288499171
-0.205509769689
0.357789571266
-0.971030846058
0.0695349695259
-0.608792889518
-0.0797020684098
-0.936436275504
-0.928519282947
-0.440212935241
0.111709732425
-0.834618263496
0.264716913239
-0.332036985867
-0.954243294533
0.0130725936993
0.267004316872
-0.218512909878
0.144912325108
0.376728635123
-0.821505604032
0.906880117096
-0.231887064413
-0.959864889877
-0.993425829396
0.0734893452957
-0.899476055224
-0.476789183394
-0.20966456957
0.691873440595
-0.561967984851
0.404089260537
-0.75453943215
0.513079817806
0.902976175061
-0.0367129446473
0.84062259458
0.0220345178193
-0.669565765635
-0.62659354062
-0.363837308957
0.997314394487
0.207669748439
-0.0920076080989
-0.829796452586
0.452662829191
0.990565701789
-0.315345511664
0.660478940356
-0.0969413708997
0.647392427118
-0.381711514353
-0.563399433184
-0.351666533286
0.744827748746
0.775527027041
0.10446448207
-0.873320357291
0.705545227172
0.955886698538
-0.606841941034
0.584001989181
0.456890207931
0.0540000047778
0.364529885232
-0.62274040115
0.599107319809
-0.945170743655
-0.818896413179
0.201409104533
0.990024216829
0.295099730663
0.91246004041
0.173606088253
-0.285659850821
-0.155064125416
-0.143827719266
-0.429968905016
0.469358936951
0.728713739712
-0.0467504145147
0.0944052615003
-0.113905225912
0.366313903799
0.356693842177
-0.0938252400604
0.168002035532
0.0933269729268
-0.471307031066
0.578540476341
-0.789115071737
0.46321401438
-0.826519643592
0.596000999222
-0.66686821728
0.113767079855
-0.702385237842
-1.02264152655
0.888400310833
-0.615791212895
0.62267287968
0.230290546367
-0.183029605172
-0.779936321395
-0.539257887065
0.57785100077
0.595287837395
0.574701795867
-0.907643776827
-0.521851324163
0.937075592957
-0.812077115099
-0.115456330514
-0.87064369719
-0.310196364139
0.309426750706
0.32981767672
-0.54821375347
-0.313386262278
0.398885650161
0.394949834281
-0.063470727347
-0.975628539091
0.0177115399796
0.388714660909
-0.0414773076961
0.565203100359
-0.308585656947
0.752768632761
-0.719504756195
0.918282443349
0.661595970821
0.110007846212
-0.514022811383
0.0651224645514
-0.920854866551
0.236510759445
0.0565444265024
-0.160040738068
0.057098155212
-0.128085299649
0.428968833685
0.611635466274
-0.128374096978
-0.521826311148
0.727987351217
-0.346443917542
-0.00718294923706
0.689943326203
0.911827830097
-0.580539774055
-0.699575980581
0.88152064114
0.475402475252
0.776553797856
-0.113877745431
-0.279612301166
-0.523665981556
0.559223307371
0.592412483499
-0.0337820925763
-0.591885013396
-0.63762024088
-0.859165166559
-0.430129586503
0.350179230319
-0.0662511496637
-0.448992962197
0.451792740571
0.608900218173
-0.289866187979
-0.00379638878751
-0.233621304265
-0.301679888839
-0.433555352373
0.569692162617
-0.217564071738
0.422118910929
0.904931985626
0.678167759214
-0.879541065185
-0.600782416315
0.509059862102
-0.856891308456
0.0228963360109
0.732137715055
-0.483510436973
-0.201536819058
0.243949783004
0.0771014621346
-0.692608729727
0.318429800871
0.244142329769
-0.513484822747
0.922202007462
-0.241585660163
-0.965928335823
-0.761816318976
0.426473905337
-0.93962834438
-0.688671023461
-0.710903345753
-0.188230261162
0.943581549273
0.318613162595
-0.706346752028
-0.584376018305
-0.115530815974
-0.384151707051
-0.368734719283
0.515646071802
0.0623581371959
0.616417220489
0.0427685662132
-0.949765777603
-0.498484526075
-0.104296783946
0.18656558255
0.0550877772235
0.199559257313
0.595000465927
0.567862035153
0.0904137668269
-0.780153949604
-0.368462196237
0.142144881817
0.567716873799
-0.708831173196
0.777334444112
0.58913620639
0.789233235226
-0.458962765409
0.451995344589
0.905799020657
0.0104628706418
-0.547895735659
0.103819830847
0.277284569962
0.38085497424
-0.0164263640618
-0.594514885945
0.249874338647
0.387383279784
0.243069930451
0.33115872933
0.108244202897
-0.426117983644
-0.957408412349
0.721756125828
-0.469590646255
-0.816252537889
-0.316183795
0.0941049179973
-0.0328397212569
-0.581531735801
0.485403490843
-0.787449147872
0.651998080076
0.418487939387
0.292436645965
0.388259687972
0.436002090088
0.772697456004
0.490434127889
-0.136376940869
-0.469010535138
0.444099217944
0.503788095716
0.995152809779
0.567561626281
-0.328303378523
-0.226180614225
-0.2610344995
-0.762558278336
-0.33124570374
0.635652603992
0.819978170158
-0.18572416952
0.164176235352
-0.17319292104
0.94822620009
-0.65375517614
0.677978399643
-0.423220687957
0.237000815732
-0.537076162489
0.931104975047
-0.47324166821
-0.299813087463
0.330927041449
-0.698753792533
0.560070359892
0.0830141280024
-0.857956967867
0.524880230507
-0.861645827253
0.173963493759
0.38998783337
-0.75538685624
-0.457490112621
-0.114153769291
0.445030377851
0.38075535506
0.84485313032
-0.621498189119
1.06482407676
-0.669511232094
0.388196401468
-0.719340384652
0.579783700822
-0.363481632853
-0.868396932034
0.672375908201
-0.602332053257
0.923929543902
0.0102841055107
0.274784963443
-1.00835453875
-0.0612989292633
-0.682115093734
-0.308149724058
0.179138595687
-0.585917638734
-0.840979275563
0.534852660959
0.513313526195
-0.931962574655
-0.538315048901
-0.861694685323
0.72991052073
0.0734695913752
0.421029673235
0.713045726086
0.518284135567
0.514884937383
-0.145813570764
0.59020327556
0.536290694996
-0.901255965452
0.780208088469
-0.605518269796
0.634209298389
0.958156410901
-0.434836973411
-0.256066436131
-0.792472840811
0.148996746709
-0.877814313639
0.549948438412
-0.583739367937
-0.119726357599
0.248809032531
0.176235328546
0.439342674124
0.70242742714
-0.555596193235
-0.682043540605
-0.118071657639
0.525667631025
-0.445787296035
-0.351097272923
-0.784753151679
0.980964089612
0.426003186941
-0.608602845559
0.345056761578
-0.807412415812
-0.88550951178
-0.211603832687
0.320767078912
-0.602550123209
-0.531006498753
0.681622559513
-0.435847581783
-0.970357789721
0.287117229764
-0.178180938883
0.0353985898467
0.501245088045
-0.38488917631
0.828220675325
-0.851130273628
0.790530232369
0.615964454552
-0.0238789271752
1.05513863655
0.649004170756
-0.470187814463
-0.170488573269
-0.506994139542
0.50502796634
-0.0488327405299
-0.69204702592
0.424908993228
0.690377552208
-0.191168086628
0.432254116226
0.730672787262
-0.491549582366
0.763669695877
0.767607880941
-0.44532992478
0.542076867188
0.255182864864
-1.16310789461
-0.299550598877
-0.798145053391
-0.150584863349
-0.982198958693
0.0931814491194
0.0022611197952
0.389515921489
-0.229877449197
-0.167952754886
0.716490824107
0.818634081832
-0.737447384975
0.123525130781
0.402535219517
-0.545985798225
-0.946897941076
-0.422335612033
-0.0334600770401
0.227232737672
-0.83019553052
1.01274385649
-0.379187143219
0.609284993667
0.419822905085
-0.841365458879
0.261219273376
0.050139837899
0.385036429342
0.145540196053
-0.424461057337
-0.967958131385
0.542351630856
0.0310599217596
0.485088843574
0.473861521741
0.99417375046
-0.871153458009
-0.731692664936
-0.486414634432
0.710068358272
0.105280606145
0.0147970837763
0.28141487953
-0.364587202789
0.0273207925315
0.963199612318
0.549425950957
-0.609847680473
-0.79969544086
0.363171134491
0.69857454584
0.88634490876
-1.0311939514
0.302101131312
0.818419467695
-0.65399450195
0.70516868982
-0.925058233203
-0.483702582821
-0.461404212576
0.994130289617
-0.0142733500978
-0.527220963264
-0.882851578831
-0.613591500518
-0.712741612712
0.221931671388
0.117004059438
0.827374047799
0.90138630013
0.925190705743
0.956415577553
0.270220511849
0.236975273863
-0.288472553708
-0.632519453965
0.987488301227
0.997092281523
-0.30833115518
-0.172765751219
-0.498160384691
0.807626075447
-0.390988438103
0.579960368014
0.468976304735
0.652819787926
-0.702891560871
0.511433722373
-0.854780665936
0.0963019851993
-0.374084154127
-0.78474183585
0.016736429881
0.946352982
0.409902308543
0.922798845785
-0.969270192478
0.200852053648
0.387674590416
-1.13081866701
-0.43570478928
0.113066515315
0.0397852502749
0.02481691862
-0.0691601740355
-0.418764087075
-0.634241261555
-0.991533159442
0.928897859534
-0.577760288451
0.85880426552
0.486695094946
-0.431614840667
0.541701135638
0.252252824
-0.558444017337
0.392199191023
0.859456354357
-0.778410040978
0.399347691791
-0.212994269301
-0.0996755284386
-0.579789827843
-0.837083084823
-0.858069737725
-0.570766765789
-0.584805264789
-0.707880365823
0.319253078416
0.240055540754
-0.144161733454
-0.196595106042
-0.380868349071
0.816074982162
0.698329492829
0.0461712743578
0.222370194726
-0.0431527258436
0.522747011074
0.727309833907
0.788764005313
0.319063522122
-0.03987484368
0.0852323720883
-0.894542237899
-0.555620980406
-0.194401076204
-0.744265210674
0.743558363705
-0.864567537428
-0.660130979187
0.763662538592
0.208707024875
-0.581877425188
-0.210461667324
-0.460699334531
-0.936835606763
0.897477556311
0.278852937951
-0.931677491212
0.429413537946
0.320451654062
0.525797324033
-0.523102810667
0.120484607337
-0.873704250647
-0.130322750328
0.783810110556
0.315281946234
-0.872017061973
-0.847912627976
0.126509791227
-0.28361046357
0.1663392498
0.00304436499292
-0.0811412501237
-0.789603535909
-0.95394246186
-0.99654603244
0.353917062712
0.912873358549
-0.917443447881
-0.342222672375
0.68038439544
-0.226947673045
0.714216638188
0.480055688446
-0.182587001716
-0.0521351890913
-0.416873242777
-0.766754604301
0.382766781831
-0.334628067914
0.433855232649
0.165044493819
1.01757606102
-0.46345218916
0.522977215434
-0.474916339726
0.610987940563
-0.663102487132
-0.360757916723
-0.845941992138
0.968527226765
-0.312162850815
-0.188726572565
0.326633065314
-0.00743508042049
0.734448303379
-0.255622353993
0.550092775407
0.752184171625
-1.12156597338
0.289479366648
-0.625802294797
0.626943188414
-0.548460833687
-0.221268051821
-0.836552013428
0.170766732081
-0.396827079708
0.516419920655
0.100142111562
0.124127781857
-0.0994849551524
0.269868413672
-0.0443050334014
-0.801645113403
0.488011662133
0.847700712064
-0.809366367442
0.412058205121
-0.913054995147
-0.600981144056
0.000378722885252
-0.146394673835
0.145133342657
-0.194680044687
-0.896341929507
-1.09818209503
-0.72318273477
-0.148153774388
-0.112737649453
0.82910990346
-0.375812299339
-0.546062894098
-0.628851096434
0.562053654224
0.22666691375
0.65248913602
-0.723992049046
-0.339302393823
0.508800241204
0.284144415816
0.0187012067847
0.777550005764
-0.786130305527
-0.0732910132638
0.201711949592
0.108399184568
-0.79425313176
0.312069951004
0.81266804613
0.633335312997
0.178786088075
0.328362240825
-0.258172446878
-0.104916135493
0.0567424731212
-0.682970072065
-0.604993927677
-0.495858793746
0.769982154449
0.826612728267
0.862091815749
-0.762415491603
-0.782109463875
-0.891324302387
0.614134164587
0.495624325281
1.0891518886
0.172548700828
0.322766673674
-0.009912758442
0.00265536656337
-0.339243979966
-0.622088720204
-0.770848850646
-0.396308014086
-0.783015965462
0.811498881215
0.343458236595
-0.24021540412
-0.512863360883
0.841550724298
-0.501201543781
0.0338521046708
-0.791605157821
-0.473635611186
-0.809230777835
0.753216533678
-0.478743321985
-0.93671968565
-0.163986259879
-0.608036370939
0.184347413935
-0.379914201536
0.472762236499
-0.697709680421
-0.540105493402
0.549942687793
0.181580103851
0.24720947649
-0.251340156835
-0.0462605029092
0.217610517851
0.126133550061
-0.125704163183
-0.973957191361
0.679421480423
0.610911305887
0.378225248507
0.549754959972
0.179658024636
0.432739471772
-0.360274074531
0.696769062577
-0.97132924895
-0.842766597491
0.384014703625
-0.177926305271
-0.675766448675
-0.222410233649
-0.22893917655
0.270050861987
-0.86700623495
0.573004106769
0.476221158341
-0.561030542205
-0.506840643117
0.73179222584
-0.601498066529
0.96720823739
0.673579893546
-0.386714292005
0.289255203541
-0.524439615038
0.211531063558
0.778099068168
0.513234812259
-0.804852216181
0.753032391783
0.127872897977
0.35843884914
0.127800002512
-0.682355377431
0.77822482625
0.934510663854
0.28182924589
0.124731438895
0.944736420284
-0.315738763122
0.316091706172
-0.882839135092
-0.72405138816
-0.784177686931
-0.830319924813
0.580657439846
0.562315398272
0.495290427035
-0.538033980579
-0.0412521734364
0.194195182212
-0.0132724193853
-0.00116451293684
0.736113365934
0.353504741913
0.375148088248
-0.220384179658
0.47155670581
-0.756942635497
0.649846083282
0.381734068332
0.140564686109
-0.305332585472
-0.32921762203
0.185321281626
-0.795168185175
-0.7620618839
0.862153421078
0.841421009233
-0.0419496581783
0.328042942252
0.431159476379
0.853799132881
-0.0557261060866
0.155125569719
-0.319738552703
-0.812537042887
-0.883811471398
0.455985093359
0.364404058092
0.146701625648
0.0610919991494
0.977299570248
-0.439649186968
0.17907213489
0.713070450696
-0.342162516507
-0.707103610726
0.4118746888
0.763174459912
-1.08467991069
0.633548025012
0.0764815364688
0.542081976422
-0.232519358797
0.119495039589
0.248876091383
-0.0371892006127
-0.429517578946
-0.440609720293
-0.351466157473
0.0572973213918
-0.5791831532
0.760028382619
-0.790804424739
0.359302722731
-0.938923737089
0.607160749805
0.434718287355
-0.598650393506
-1.01911219001
-0.346444379068
-0.475083598923
-0.696976537786
0.368237578733
0.265353407593
0.750159943795
0.423742407863
-0.233607230494
0.422356750099
-0.447123110415
-0.31873931893
0.630897984153
-0.383618715597
0.587890136017
0.265006900432
-0.034274154523
0.464577369553
-0.885759122249
0.281140404807
-0.687157250992
-0.51735293408
0.459491128505
0.0843957986961
0.625634781515
-0.941040008547
0.284894212258
0.305671040481
0.164504914684
-0.781427480022
0.157304965124
-0.826730939753
1.01688119867
-0.435928642025
0.202567617752
0.599759007673
-0.0745963521041
0.798550765117
-0.774444727372
-0.752952051447
-0.497056637351
-0.173671514162
0.774379334205
-0.273778176332
-0.331143057922
0.884399493752
0.976253221511
-0.69105561386
0.259430659556
-0.231126180999
-0.456595138857
-0.158275928721
0.458223765105
0.803051503194
0.790813966833
0.476400406223
-0.770100677325
0.229709603219
-0.490961275625
-0.77194949759
-0.562530578466
1.03505949735
-0.848193830391
-0.322809211882
-0.29315259628
0.343792758058
-0.392645671183
0.0188706039541
-0.380967413343
0.353117125209
-0.191829752111
0.405826958023
-0.327261500362
0.348116214743
-0.853062823739
-0.737395680722
0.914388124428
-0.702739914696
-0.939987336255
-0.432270114826
-0.33180096074
-0.849294932478
0.663915524763
0.0801254411573
-0.711353370229
-0.487225766789
0.296405878386
0.782640130105
-0.0202958188078
-0.227485297738
0.927991172353
-0.312799145487
0.463004299341
0.243656935398
0.100821557919
0.745902085198
0.203768755651
0.242280135425
-0.121584362929
0.624266119564
-1.22640231636
0.156151424836
0.740591331961
0.522925023656
-0.334924366473
0.517677917555
0.0998667863384
-0.148789435385
0.342803947132
-0.0789706705745
-0.204629894261
-0.137825517434
-0.790900080487
-0.798677203625
-0.0135917361113
-0.918603412223
0.731124749579
-0.648840234807
0.728733416694
0.0444548480038
-0.0104029091729
0.941948543609
0.647899304713
-0.558654757662
0.532856003691
-0.980122053485
0.958134923493
-0.775826360827
0.857141249106
0.923912937583
0.354105036745
0.138006891062
0.758320957398
0.742066184568
-0.0457297944409
-0.154100653809
-0.255631546321
0.281718984709
0.671468430818
-0.312777421983
0.19093948961
0.167892734345
0.428013348182
0.553842862885
0.203107682136
-0.526455071361
-0.838342306745
-0.407442117297
-0.620670346271
-0.211123325522
0.488628451201
-0.572654465037
0.776140895325
-0.334792277308
-0.171345829749
-0.518816716497
-0.807404047641
-0.178113186515
0.380410476316
0.0283699049199
-0.556522378629
0.1095570603
0.678278466293
0.0482871767426
0.0881401539703
-0.813644325361
-0.44434309054
0.356254985644
-0.294867608887
0.239810800194
-0.136305012822
-0.409493412176
0.680895812727
-0.892090388079
-0.760389212387
0.786037711982
-0.395420574451
0.933971769925
-0.237274403317
0.21036800797
-1.01101455235
-0.125463376009
0.78138282395
0.983079902769
-0.57554291032
0.796536439253
-0.915179402856
-1.23993312128
-0.759916175475
-0.237602497401
0.0378910204898
-0.258249327438
0.766138376522
-0.820636496164
0.94474586019
0.151222359943
-0.794308902264
0.656342901841
0.240604353079
-0.599634220309
-1.03831487278
0.0969676028587
0.397242569405
0.519510665696
0.0703946090103
-0.557137943382
-0.855028291777
0.672772283422
0.445861844316
0.416386243445
-0.728005506124
0.0222245524974
0.500466905315
0.254823583462
-0.630202710935
0.562176668584
-0.213577857685
-0.237505990084
-0.77153853912
-0.992909962858
-0.77402538447
0.0418315270165
-0.299536381831
0.80635420402
0.15240217529
0.528857513203
-0.888592526406
0.365038958625
-0.0716425543183
0.442145172658
-0.000427563885485
0.0241788776174
0.372207414915
-0.228796477203
0.858871619389
0.570966462426
0.417710734317
-0.899868256312
-0.24685841074
0.268729409296
-0.487933056941
-0.462918429818
0.627274277432
0.677210155621
0.68168470333
0.0752434254804
-0.149506381297
0.524566982269
0.579599990299
0.646471698767
0.0471152331863
-0.475567418258
0.667739016213
0.0300169634977
-0.780441519708
0.913659364246
0.701000197724
0.0386655402002
-0.347049007176
-0.853401435495
-0.435277695508
-0.610054766773
0.956245982057
-0.0783417921763
0.873902517236
0.97473200126
-0.909508287736
-0.107859370104
0.809255661749
-0.0701791381539
-0.236653634992
-0.370445348994
-0.0569999803181
0.596789375788
0.961474098327
0.550420995068
0.342367897735
0.791735214747
-0.0422410250237
-0.90883804383
-0.101866775716
0.259917307634
0.676351812216
0.033959005957
-0.254693328633
0.198810510945
-0.345735890823
0.726527011775
0.689660216088
-0.122823529347
-0.135321172991
0.251866954542
-0.151803930441
0.0541997046564
0.169288821343
0.514345491756
-0.334447012021
0.580076544416
-0.865614381772
0.116267431653
-0.91884384187
-0.276196032993
-0.840264625772
-0.302584829498
-0.610942240482
0.608032577827
-0.895537625741
0.753262703401
0.956165999218
-0.726400728957
-0.369595666651
-0.686136007975
0.894850194367
0.98228774384
0.0350133738526
0.953589714232
-0.222724142825
0.0770657926372
0.330236843202
0.894540764043
-0.924201960659
-0.586914298886
-0.290532009868
0.305588990548
0.386724318264
-0.323608008726
-0.492682673153
0.227720934849
-0.463023800413
-0.345097509296
-0.457466459552
-0.907339229788
-0.219694478221
0.278375474236
-0.0584076114851
-0.473346684732
-0.135104028975
-0.499719165091
0.336835325187
-0.737431435256
-1.07710302865
-0.933521784485
0.0603978558333
0.247003822618
0.81306939238
-0.256103421038
-0.00210028923315
0.548345112663
0.448212962713
0.140736304129
0.986443706094
0.363915383683
-0.274526904678
-0.333717524547
0.662850293151
-0.519727827202
-0.802489410187
0.723845029056
0.530910618343
0.363680486332
-0.369707932237
0.999823176957
0.00851368557822
0.696186965751
-0.286257271979
0.918505588436
-0.690494895019
-0.392464209098
-0.745622323162
0.315963001965
-0.680080234368
0.218193554238
0.459033092442
0.26114618192
0.974613996813
-0.795387300741
0.765730475315
-0.37833400067
0.900869149365
0.318766598115
0.326963503666
-0.0177868283797
-0.403069977539
0.196960661838
-0.141186598295
0.506054578314
0.66055363578
0.121861097021
-0.888636851627
0.882527000405
0.833400700215
-0.227357015971
-0.15066709599
-0.988814906551
0.785090686417
0.699802506862
-0.772850484513
-0.271666278931
-0.398702076181
0.673699297403
0.764828416691
-0.0179940412269
-0.548588122827
-0.254405815498
0.437064926139
-0.8444460655
-0.684556106259
-0.100668368338
0.850282059297
0.825393713214
-0.972028965456
0.486510420955
0.721350572562
-0.225819535919
0.513782249856
0.472811972685
-0.885727276086
-0.608878262424
-0.0302269790301
-0.718475046671
-0.157731686947
-0.0636641516005
-0.0313219208339
0.503460103807
0.909721545059
0.836574783624
0.66764190119
0.0340187812186
-0.613519605297
0.831705574167
0.654631075268
0.986812105424
0.442569089481
0.0588451502938
-0.474976913245
0.262273315252
0.216811406969
0.522272298553
0.918250071566
-1.02359038013
0.658197092066
-0.885206964561
0.673102676232
-0.241701487727
-0.161965750597
-0.0745123332433
0.568509068361
-1.105219974
-0.786652672663
0.318701217481
-0.257556522211
0.144593888873
-0.589701881535
0.232977522007
0.479489482927
-0.240913188333
-0.779446603849
-0.292831161685
0.672345491679
0.500372167702
-0.824784999393
-0.442811472283
0.972503144156
0.0564207684553
0.993509246089
-0.771847262859
-0.857726463083
-0.3648296695
0.193321112156
0.309751847233
0.922450621593
-0.512479779056
-0.0754022359416
0.299116293965
0.77671973524
-0.287322488426
-0.055580370714
-0.930070701318
0.508153220374
-0.932798762573
0.504551096382
0.983805178311
0.261206617499
-0.708639409098
0.465860491985
0.605868227868
-0.890863660105
-0.84187035658
1.03470678807
0.985617454481
-0.325831841363
0.437554506853
-0.0740535476877
0.977035786492
0.777350568593
0.564559457197
-0.9531903781
0.256663815439
0.786030543016
-0.0365288352282
-1.11074424718
-0.894816491137
-0.315272843851
0.819181096125
0.466661802523
-0.350450015448
-0.902759464477
0.157696896934
-0.443084779965
0.873805226823
-0.969515945313
-0.185506448993
-0.891687292777
-0.15825972568
0.200033220791
-0.835197947548
-0.286508925091
0.640419537601
-0.231415223365
0.371616250146
-0.626304282817
-0.590025038477
-0.180069013553
-0.491060915239
-0.179695583485
-0.207575330987
-0.611575096778
0.468301760951
-0.12680127331
-0.237634530482
-0.784628297435
0.496779367192
-0.535822052834
-0.367759671126
-0.479407132207
0.770075252622
-0.0933238078567
-0.250975427475
-0.948794035166
-0.211947216145
-0.47607005273
0.967713087521
0.2725004492
0.229917950682
-0.392364994236
0.188268617545
0.516420302161
0.381288145175
-0.0744217235303
-0.950943426304
0.0439278021052
-0.89034748975
0.240228745369
0.9706254169
-0.0129889249972
0.137316337622
0.0990828061446
-0.532127071521
-0.858341565809
-0.603950844327
0.693359077741
-0.220639635855
0.792683785114
0.555426551617
0.807998046134
-0.324388063906
-0.264415831273
-0.411140782322
0.747496230481
-0.873053273812
-0.111252222936
0.797482686687
0.725821315619
-0.46188711312
-0.399136455848
-0.459395493716
0.580638785741
-0.284013059953
-0.0436060012484
0.618404374348
-0.58540076754
0.525232887422
-0.202755802566
1.04430399154
0.444070585872
-0.774046309752
0.300202314527
-0.180878820524
-0.200231068661
-0.240093436258
-0.145054310339
-0.711906097987
-0.121042790175
-0.834495156248
0.513410669468
-0.537095738754
-0.673607632009
0.295802128301
-0.0356569623023
0.212872654158
-1.04149695078
-0.297079173076
-0.865603876899
0.185346968523
0.611358643306
0.0888124845806
0.294942621757
-0.520433472059
-0.720579784653
0.240646231386
0.857360019886
0.460232042456
-0.133826838017
0.142155499743
0.0632726012945
-0.706955976511
0.456907206779
0.12138522209
-0.713594437238
-0.140684298937
-0.600864500977
-0.605654126073
-0.195562106363
-0.314441971239
0.582143624592
0.458648540527
0.369052276842
0.132422819064
0.0061125666778
-0.965302875969
-0.101315788605
0.066716967032
0.470904051893
-0.445721653373
-0.429931652061
-0.0702349028841
-0.746706222979
0.8432235874
0.836417119373
-0.879728238367
-0.182477789496
0.451621336352
-0.420718975137
0.971985729998
-0.0802339905029
0.167453728816
0.343499319001
-0.207018614766
0.626506255571
0.65962012636
0.565195974293
0.349394213795
-0.609018524793
0.261562914797
-0.650839831044
-0.902947997885
0.856132182973
0.541588882877
-0.046109791763
0.320287558292
-0.745410395522
-0.793439062126
-0.90987922985
0.530308366131
0.0515221787603
0.0701409833799
-0.405532077054
0.465025474714
-0.591623704559
0.132066043536
-0.609437887824
0.0769996167738
0.930567472215
-0.172432609053
0.724923425212
-0.776752557078
0.714366527174
-0.88159084132
-0.238294454018
-0.346360482256
-0.747267024172
-0.333724990319
-0.572714229951
0.308872484124
0.90590726574
0.729471828694
-0.510251266126
0.642092839544
0.196842923542
-0.426839783882
0.54485776328
0.274005774895
0.509208636885
0.131198984882
0.375206496571
0.959949274684
-0.0694607889184
0.8443647074
-0.0442859365407
0.261364825047
-0.173354612968
0.690558696937
0.427783596681
0.275290369458
-0.814864653847
0.362124922343
0.670808685151
-0.298009185427
-0.420235670522
-0.926331692591
-0.981477389156
-0.0691217163961
-0.931679022865
0.579241171387
-0.384913929997
-0.727296158608
0.915154912154
-0.931050283964
-0.309689852801
-0.470059244472
0.472738971256
0.526753027796
-0.112243789716
0.979319419993
0.659853550903
0.866712604068
0.300288203945
0.31307708087
0.154261484545
-0.900379203647
-0.90080751879
0.828529393751
0.687552235943
0.831681511398
-0.465235237693
0.78552097534
-0.854730905314
0.652458147997
-0.19003396827
-0.0066024914964
-0.955323418208
0.909851488805
0.219544194825
0.603134517777
-0.983763252782
0.861226537789
0.16477054157
-1.10780977735
-0.632720210898
-0.0588626427835
0.929024681491
-0.755407444319
0.116746098846
0.401618152227
0.64818657841
0.617625672765
-0.531936600097
-0.453219099407
-0.792795993044
-0.326853462821
-0.427767488432
-0.0623871256327
-0.869499348142
-0.505962566508
-0.700090562043
0.352809794689
-0.177876836607
-0.00954041104071
-0.309884065548
-0.888641918857
0.495537607189
-0.80015207654
0.598975392734
-0.0347734356979
0.0534581196905
-0.896502297877
-0.68493911757
-0.754763754396
0.954047565436
0.00200185816111
-1.05237886457
-0.517372481305
0.972845756463
-0.523364879734
0.591903377672
-0.00265159673688
0.540215150514
-0.84574262705
0.342966334276
0.479398503706
-0.570718940008
-0.603338156116
0.651198757363
-0.946678214336
-0.841074643157
0.771817581841
-0.85892424595
-0.655394802845
0.998972808737
0.839013902377
-0.38101168576
0.810132314977
0.972603842312
-0.383520538525
-0.458063439166
-0.432517252464
0.375515509213
-0.216319053038
-0.327510840717
-0.308879435672
0.935600457775
-0.24290989237
0.28641167636
-0.968675649064
-0.903061802615
-0.627770126813
0.185346256147
-0.241120306095
0.331209572023
-0.851742157016
-0.871770043883
-0.768792414827
0.879315997314
0.00144463024944
-0.533980532816
-0.936141289577
0.762949085651
0.146838363077
0.558448967481
0.953207285456
-0.625595302398
-0.216218324423
-0.929650388941
0.986384180885
-0.882368350458
0.443931541826
0.184821388536
-0.85816697848
0.398996227227
0.405131517946
-0.29503216282
0.778077032092
-0.982288960187
-0.591397078706
0.806732334149
0.472068465404
-0.780711327699
-0.413744036867
0.763862471288
0.496912169782
0.184349229126
0.691302426006
0.214240423204
-0.490541515503
0.140562503519
-0.607406151095
0.46486769924
-0.405247493149
-0.828586003706
0.276761261249
-0.427013386038
-0.259711228617
-0.652796912752
0.971329816226
0.753125871518
0.870027673713
0.944909343176
-1.03460017639
-0.356374823875
0.67619847804
-0.885567230302
-0.916857894666
-0.77166763549
0.781913566548
-0.131423823933
-0.588562561122
-0.417460905097
0.563113258212
0.811078547703
-0.17338504253
-0.87810307158
-0.232538320107
-0.816313651484
0.574466275586
-0.913518214237
-0.979599030227
0.758402628322
0.347323460724
-0.381123169106
-0.155428744439
-0.0451219302282
-0.124702105495
-0.635111088091
-0.520128957451
-0.124978639537
-0.347876415654
-0.844989045544
-0.436308174658
0.480285615497
0.83639595525
-0.960253277609
1.00550214734
0.0220626053121
0.234964132816
-0.653730816505
-0.613193078652
-0.78178036897
0.156106346191
0.0134767681182
0.498159886816
-0.426084629773
-0.0507702151447
0.597904895256
0.298924431069
-0.670478334344
-0.668581988266
0.622133502547
-0.264609380267
-0.0690050720081
-0.300727231705
-0.600631423571
-0.74142806443
-0.972889106803
-0.182705315098
0.0823656164915
-0.360288546213
-0.481525422665
-0.765304608287
-0.907226679015
-0.993285969114
-0.412104512995
-0.0701651638576
-0.0275201956957
0.745330806485
-0.731047037511
0.66298546924
-0.90500262941
-0.284108425895
-0.764136062105
0.129478337996
-0.71304355498
-0.337623880728
0.811533800898
-0.252984198803
-0.0361986428294
0.0765742881701
-0.774207284756
0.0414812299158
0.838455777772
-0.857129599354
0.859886481358
0.773960164701
0.277214022021
0.707071194282
0.0810584394871
0.418838192542
0.136088927737
0.511547107638
-0.805252597012
-0.267665704631
-1.10324114149
0.00855837522037
-0.522031287469
0.598245903747
0.813251958866
0.973264560608
-0.0149235557032
-0.871752727058
-0.163411470685
0.546000822791
-0.92199210903
0.757816640544
0.679432080391
-0.353741242584
0.548984037506
-0.261728655632
0.861693243994
0.385048530956
0.0890659825848
-0.501408416402
0.797268481609
-0.314626988691
0.217572631358
0.605857075678
-0.831640561502
0.0237886744756
-0.628057720611
0.600400846038
0.911930426634
-0.00773898567779
-0.202589265795
-0.0939430500952
0.366344498116
-0.419283987981
0.368235085406
0.0571766681519
-0.429076283285
0.0366771292421
-0.91626625294
-0.012972996896
-0.374127467792
-0.0835440851629
0.0294422472199
-0.905369291224
0.939082788022
-0.664462719411
0.597480615873
-1.10694480805
0.261701245097
0.546829167008
-0.898580767992
-0.230761569069
-0.650515688843
0.980479670719
0.417532850295
-0.336972956522
-0.206929794747
-0.506547511716
0.0588397148721
-0.516950623451
-1.08272735325
0.948576979102
0.14964356894
0.179099483017
0.138318239333
-0.879975063384
-0.15600843926
0.0145577446178
0.315546494046
0.830320693603
-0.805065576552
-0.877717123074
-0.670205656355
-0.180745793822
-0.0530330437801
-0.499375222556
-0.262816729669
0.183213585593
-0.849465841055
-0.502537565393
0.814198082808
0.163108903862
0.793183137461
0.357887780947
0.600558071717
0.353244212066
0.742359949071
-0.177737604587
-0.285117823124
-0.929480846668
-0.834073445813
0.49379761348
-0.790882928328
0.0830874898985
0.161260252687
-0.264753235591
-0.0445764144507
-0.749622012028
-0.311176985845
0.917072396781
0.527238985594
0.710343675701
0.131950456024
0.498231529398
-0.377190390275
-0.860855990024
-0.0890168065362
-0.494969450667
-0.518734530714
0.0296146911561
-0.281764250742
-0.903281317184
0.692526248112
0.401411953129
-0.82067825797
0.884759416746
0.235174479744
0.550098441525
-0.962281022696
-0.112289999711
-0.461348004776
0.721355975938
0.169817356219
0.349946134728
-0.347485831416
0.56487226139
-0.535492535896
-0.37835447532
-0.171166155913
0.838182315361
-0.0307079614064
-0.385537681933
-0.144913844288
-0.619811181985
-0.952304033524
-0.198701419477
-0.496642073626
-0.113113796036
0.710984188252
-0.829098520093
0.430754244348
1.00202974494
0.824988377432
-0.339224917235
0.689955371877
0.263750218042
-0.51202964204
0.300250288149
0.921633479703
0.591430260695
0.480923266105
-0.232770670904
-0.472020039071
0.0342675777381
-0.329695078692
0.514080832391
-0.558418952288
-0.870743789871
-0.201227783363
-0.311756742828
-1.19426417997
0.578786884117
-0.50741966139
-0.459690457456
-0.96218483282
0.929958540716
-0.661716968721
-0.98885127176
-0.814962726267
0.276470381489
-0.907216659852
0.412992272192
-0.156193514416
-0.0102494164645
0.161151237548
-0.53829587279
-0.109536520808
-0.729448148856
0.248101908081
-0.286712725107
0.671533698768
0.171549048943
0.441079497954
-0.498876606482
0.597656476823
-0.547233552748
0.0716654138831
0.573766460864
0.149004614238
0.219436646413
-0.340959564271
0.559824148212
0.886957178868
-0.846981689599
0.56211880548
-0.875713524181
0.524339620463
-0.471923128478
0.0157251059401
-0.986432905028
-0.191146523604
0.45938838185
-0.678519484999
0.930468026449
-0.124725471647
0.557130098319
0.256396051546
0.240488537829
0.852629927472
0.982556456505
0.0717689791472
-0.606551536288
-0.957610268907
-0.364820894182
-0.594051049436
0.112129399572
0.561279086711
0.7035417142
-0.980810112102
-0.258556951703
0.0833566855239
-0.165260580109
0.690556929385
0.113908136145
0.904379377739
-0.292750553133
0.0516375680015
-0.207957317067
-0.257135220595
-0.466452533077
-0.975852500345
0.246995660972
-0.875668403438
0.275545010962
-0.175799822746
0.458486507135
0.612273116361
-0.824383408895
0.577903218782
0.495269480004
0.335184016241
-0.688478465726
-0.577847911057
0.221528467519
-0.968506172778
-0.0614478675913
0.369933364828
-1.10836325887
-0.627600219036
0.342798739382
0.733982740027
-0.922317405995
0.25125436242
0.575602495927
0.768066629495
0.846140805288
0.8535732851
-0.167198804418
-0.86180914085
-0.772517872949
0.222291464788
-0.605531032013
0.646315631534
0.13840504828
-0.912680851175
-0.601413224943
1.00212720974
0.0951346352148
-0.0992530804904
0.331925380139
0.802064390683
-0.689996476459
0.613528428763
0.467345239246
1.02908829109
0.0568399472613
-0.202720935858
0.960744296556
0.6633427163
0.286292201208
0.0163839303534
0.671980051696
0.459464561061
-0.30842372481
-0.599508113923
0.673649524679
-0.739780334093
-0.549244763714
0.268601231505
0.417577101934
0.0322460046916
0.645943095207
-0.873836176912
0.619663265822
0.0633271770964
0.682698651205
0.304573993248
0.379702367881
0.387101029326
-0.0801750738974
-0.760058577749
0.440659028214
0.0332222505461
-0.687187815545
-0.641053919452
-0.748724654291
-0.110610263343
0.0200657169402
-0.541417619795
-0.330315457854
-0.82405427143
-0.952385439124
0.839891098498
-0.715473064884
0.887255702099
0.289618859881
0.462232229238
0.0364403295509
0.146921474643
-0.441908420073
0.407503209466
0.730340329804
-0.602844940678
0.438691094859
0.00676228660869
0.568102398128
-0.747143398716
0.434949793301
0.10124447556
-0.46248562143
0.141001666357
-0.0595638885101
-0.0585004765339
-0.993394604698
-0.117353449862
-0.456057241572
-0.186994852842
-0.756526405756
0.482880426193
-0.309688482738
0.477910787343
0.0990350729286
-0.233478609515
-0.689380936967
-0.153650388669
-0.739766522881
0.541262623876
-1.01270749109
0.342868049135
0.939825086982
0.45522102662
0.541705403735
0.544727896267
-0.355428411823
0.567763392099
-0.208873707521
0.595757054367
-0.531549998003
0.189572359205
-0.490136489686
0.241183130195
-0.643532249253
-0.901773980681
0.998733326899
0.947409599533
0.691602356611
-0.144370852393
-0.381073465084
-0.571493433948
-0.0416854902884
-0.766683056252
0.0214546637123
-0.490559229549
0.398844979569
-0.652878968765
-0.500707469091
-0.238567387606
0.993475827223
-0.579251889189
0.16994433959
0.465162305631
1.01942142624
-0.751101402413
0.340555979845
-0.21856353471
-0.642508424051
0.50652075836
0.471505006524
-0.174645102694
0.418235640971
-0.0826155635875
0.826707097731
0.306116538968
-0.214146045652
0.212063155006
0.526262863173
-0.936316000001
-0.986962346728
-0.546319312487
-0.601379441287
0.36102646039
0.255879393538
0.686289284426
-0.596744893263
0.531968244649
-0.780956238731
0.304130312796
-1.17381336157
0.256336872444
0.222536302423
0.967980982108
0.564068792537
-0.925954005679
0.847010780588
0.756722244612
-0.647215981514
-0.876489729575
-0.359982610176
0.0886950346388
-0.323681816976
-0.832860923616
0.757512373547
1.00563088484
-0.572639517633
-0.014639256645
-0.563197768247
-0.0852413419282
0.202315637201
-0.66200750637
0.0304844465134
-0.887861421738
-0.9262687044
-0.0613039292666
0.429519928073
0.0735864508133
-0.968279634194
-0.42991200893
0.366511933998
-0.845301089453
0.132075924087
-0.737212024487
-0.891342788301
-0.371397414374
0.64114555354
-0.770796042843
0.350556707567
-0.25916411718
0.223470788482
0.0972665875842
-0.241801430784
0.789773617242
0.47892784952
0.994488852685
-0.659978454872
-0.240586798843
-0.65836178585
-0.585000572295
-0.233107991851
0.0227775467782
-0.960081466212
-1.04089418267
-0.557541855303
0.340870478638
-0.107151012662
0.767927930162
-0.273562615249
-0.845895305915
0.230010461689
0.29227702561
-0.988849785869
0.966152357602
-0.0415056668317
-0.577247724026
0.612671125313
-0.098849769767
0.369165160903
-1.00200654355
-0.645828984251
-0.519766508855
0.745589260707
0.140960696958
-0.484484218128
0.92625818018
0.898250606007
0.452337208925
0.0202112665826
0.516619890003
-0.436048663917
0.474273055646
0.5672645014
-0.0352712705388
0.79322400019
0.302296272681
-0.147100650282
-0.649406599058
0.87343088196
0.141315614653
0.725459238555
-0.335110174746
0.456992001093
-0.734352169397
0.797479963611
-0.643011959648
-0.459309918245
-0.330248267138
0.293132642198
-0.104898801389
-0.882808803246
0.842118119686
-0.195626738348
0.825585748604
-0.041011642607
-0.576104122565
-0.331657971871
-0.439301843641
-0.916722207979
0.665715083278
-0.478205028053
-0.569430384764
-0.536329300426
-1.10320655474
0.671122222846
-0.318794108144
-0.776296758168
0.517327473672
-0.68369276318
-0.841670034101
-0.907844595025
-0.238895396977
-0.686257375358
0.506199759913
-0.671768601724
-0.442319273894
-0.0817022691198
-0.815249735197
-0.0465582841315
0.907953006939
0.856588270912
-0.950867421878
0.906691454042
0.323822250595
0.019706353361
-0.84642169989
-0.189984687145
0.0516223647621
-0.289399325562
0.814722867145
-1.13175697235
-0.263583406292
-0.794091933772
0.410077988523
0.270700642253
-0.286535859206
0.855546705536
0.02247544957
-0.372384231301
0.406763590481
-0.960149105184
-0.0581175419226
-0.891395107848
-0.652514103777
-0.935699844177
-0.20104223188
-0.502687340214
0.551416661448
-0.618262457298
0.55695612909
0.565254591869
0.396296588128
0.533355621074
-0.0359810408059
-0.225919346942
0.421589084224
-0.797865926715
-0.413459321444
-0.917519444098
0.821608139474
-0.942392450166
0.0571549108002
0.52547910885
0.211181234295
-0.669731198326
-0.678613205064
-0.572772006215
-0.364584342354
-0.961951446292
-0.392314457127
-0.657964144437
-0.668832752823
-0.111170409237
0.816680435702
-0.139602661418
0.777689172607
-0.855930889779
-0.868971883155
-0.204536122935
0.468768931063
-0.934127120367
-0.0621889238261
-0.00817266408552
-0.359802050398
-0.0177478081214
0.331485286988
0.875616330416
0.0807692639205
-0.683556092977
-0.154467363384
-0.61317327306
0.910892498494
-0.688574360395
0.682146063075
0.537394054725
0.428401256122
0.469418419863
-0.965290266037
0.128112137298
-0.57030811556
-0.523490071589
-0.231390775892
-0.231686700639
0.366551523937
0.775038754014
-0.303321602671
0.332040578057
-0.0638618414971
-0.937528021387
0.444253689481
-0.829631667623
0.230436519267
0.195945131836
-0.566231257862
-0.520859643286
-0.555038395679
-0.79449812822
-0.696545761661
-0.0877453060283
-0.125028675587
0.974342000793
-0.844786242456
0.619988261145
0.0442739271376
-0.440844114013
0.445761023182
0.535809114149
0.371813508452
-0.745263953312
-0.360777513511
0.0179182246644
0.0585162530554
-0.16445317339
-0.737937870772
0.114102989937
0.22231079936
-0.454449862483
-0.39544193125
0.0436765608272
-0.902200551405
-0.578096682666
0.207469514974
0.407909615779
0.41309980334
-0.0690329993167
-0.260711762156
0.726566498267
0.168686697641
0.713160981164
-0.186048357864
-0.181044064111
-0.585056331891
-0.457177421302
0.228861893204
-0.661197036663
0.693858021682
-0.829204491503
-0.488197978419
0.913624326245
-0.569843919381
-0.744651548642
-0.866170645501
-0.579751752559
-0.694999027161
0.914525089672
-0.205297304113
0.78523964169
-0.663120638167
0.696800617698
0.86834623694
0.0658709150234
-0.70206334098
0.540524973
0.368313898366
0.0251689690303
0.344870338299
-0.46282969432
-0.20960038494
-0.986150894381
-0.489046780038
0.51143919217
-0.422044008775
-0.375045740342
0.311090473784
-0.0866533761243
0.403097835874
-0.895886558402
0.724719621405
-0.604078037814
-0.15469737571
-0.900736683854
0.0360821745729
-0.412207313902
0.0259558972297
0.796404539607
1.03529991574
0.546334499632
-0.729543370918
-0.913496964992
-0.581561425863
-0.718992886051
-0.976444782674
-0.865198512376
-0.191256428559
-0.481829485624
-0.934885214858
0.544152569633
-0.904314207241
-0.0275561190088
-0.185742758441
-1.06096770839
1.03408626861
0.119615557943
-0.340341091516
0.799308345897
-0.273286227424
0.404964388157
-0.682739010758
-0.21819633292
0.56577506781
0.123987440606
0.706798002612
-0.964847557312
-0.308204488943
-0.597064718786
-0.87978060229
-0.934008178717
-0.751858301899
0.733024328589
0.925704435732
-0.496025826561
-0.244861297414
-0.834567334218
0.901839726413
-0.694118333411
1.00469467075
-0.828865598981
0.588438206163
-0.47728911129
0.0543359407163
0.270402045858
0.134035797604
-0.620421234382
-1.1489970789
0.769556324233
0.516170675001
0.810926795604
0.737949102683
-0.928671471644
0.836364415961
0.316551450129
-0.472675825987
-0.102146847644
-0.586071528092
-0.550515972191
-0.91867950687
0.376496468156
0.519935786764
0.437636775946
0.425555661554
-0.498764697372
-0.250794785678
0.26865347093
0.386979336176
0.869921135972
0.637746567925
0.668989005051
-0.6228148935
-0.754096725526
0.51029211621
0.160060929934
-0.84938420867
0.817592810379
0.0260657638125
0.951509695009
-0.182704114355
0.381377645041
-0.258745235488
-0.837318396475
0.830998856489
-0.484441459841
0.581866144611
-0.229758361402
0.526390639249
0.744214087202
0.349392195799
-0.38897845352
0.192292264127
-0.571601254572
-0.249159960506
-1.06871809763
0.420784885166
0.122439547313
0.487540555406
-0.20086450566
0.60408813757
0.455257969972
-0.804119045582
0.568091926782
0.888086535068
-0.613465642121
-0.272916028892
-0.234415523485
0.635083515981
-0.770009509511
-0.615668237396
0.0943327100603
-0.751737353684
-0.575450595203
0.994993199203
0.618384325518
0.719519383286
-0.00360577025228
-0.0240460410055
0.849558987061
1.03118275183
-0.358479745589
-0.247359962622
0.566858722356
-0.210013002826
0.735529839726
-0.0709339591588
-0.509535599783
-0.94584435075
-0.487267491354
0.970629044988
0.952708026064
-0.577115847462
-0.741478045206
0.0626258905609
-0.315672063753
-0.565323255889
0.201059799036
-0.600640485384
-0.694714769745
0.916739802421
-0.0875829893076
0.211403357948
-0.720294609438
-0.907763853496
-0.169805618313
0.481640439218
-0.444995363373
-0.0763227241611
-0.526367832085
0.884374279214
0.717885129239
0.074756859883
-0.748782849827
0.922245330823
0.300762321849
1.02950705295
-0.506452291049
-0.633041365802
-0.809487146435
-0.672151685902
-0.697545926381
0.612568922142
0.572001087655
0.728922049891
-0.0975679999698
0.278009885465
0.862833837705
0.0740623248786
1.01203495535
-0.571697079763
0.77680099274
0.382990854576
0.690426080874
0.910332463851
-0.364982607466
1.0890520823
0.735613508066
0.324831245922
0.246572563921
0.908920748224
-0.313926557902
0.528254603799
0.443406140595
-0.131159099235
0.286234230109
0.936890295742
0.618289306171
-0.172730197291
0.520309890859
-0.276262396069
0.0793312127719
-0.0966823920026
0.333237601303
-0.623151207738
0.776038390787
0.437629958514
0.639995244693
-0.264157221506
-0.738272166713
-0.371694370722
-0.282600523906
0.618869564259
-0.238012578712
0.17941741503
0.945807331847
-0.609046187323
-0.201960089417
0.171380968322
0.661132746066
0.392041720957
-0.623523260879
0.554591656818
0.299783766956
-0.728842872744
-1.05041307983
-0.229342030371
-0.0365565785322
0.0574412406306
-0.0189090140297
-0.794588842818
-0.0665811322572
0.215914322955
-0.941835906943
-0.61981104742
0.720219023242
-0.882319905721
0.902749133298
-0.976188381565
-0.8802116707
0.0972741068458
-0.930432109822
-0.862700275419
0.5709430589
0.981492127474
-0.165822834916
0.559052156802
-0.0353444884496
0.244733430737
0.375071737258
-0.909654544288
-0.164642944007
-0.592814787588
0.410652542399
0.823674598881
0.441703284541
0.896320332738
0.792836378315
-1.17427483042
0.0207608226921
-0.517036029052
-0.543014933992
0.92411212081
-0.209008276533
0.310150562314
-0.680584857498
0.505701064005
-0.901768101017
-0.0210114456543
-0.965010090556
-0.583828958793
-0.0973118061627
-0.573811546826
0.871185587578
-0.435902443467
-0.912793719514
-0.318806602175
0.952341322192
-0.207606821468
0.705139017933
-0.677394690669
0.00336253073247
-0.32619960782
0.255333324151
-0.514141652967
0.142891744273
-0.409777042763
0.987476935284
0.253277374628
-0.898606180923
-0.846013953856
-0.566013541546
-0.518012178326
-0.55203893
-0.597473720066
-0.518163155264
-0.764475922488
0.40257837233
-0.235304148377
0.622110218775
0.035475347336
0.972538548246
0.596145205576
0.923164932529
0.387119221716
0.575308094281
-0.0551409940904
0.903473337781
-0.115564236105
0.850013339701
0.775745500091
-0.753539724417
-0.48237388733
-0.277006721767
0.913168324121
-0.357805735173
-0.182533144913
0.730123952798
0.531936938292
0.139075975364
0.979849536544
-0.22194932455
0.240375952064
0.627687932954
-0.370743376185
0.624153253602
-0.191916061112
-0.992255785515
-0.941934033516
-0.221629801385
-0.0671080873389
0.0867499276852
-0.700632582568
-0.187961363366
-0.414738455927
-0.800675749572
-0.274637299087
0.397740794384
-0.676506381234
0.230806858269
-0.515296385141
0.703337952009
-0.208776274202
-0.590063392143
0.309397568342
0.576958782799
-0.312562089399
0.445936389634
0.275277967614
0.380739325704
0.891437275335
0.937311117765
0.575735662156
0.209781271809
-0.455989493024
-0.906648967413
-0.467949949246
-0.471517077717
0.0494077216748
-0.0559275041122
0.221077185253
-0.631773370744
-0.031263284578
0.516429998705
-0.244195274637
-0.899712553352
-0.182890006954
0.353787241853
0.810599593368
0.0733021609096
0.814283789538
0.95195424037
0.594071325362
0.324496046995
-0.345921360588
0.107962351728
0.553869175677
0.752425709381
-0.239380421955
-0.535692885333
-0.874875767868
-0.607439129098
-0.64519491906
0.909211404287
-0.220414697988
-1.06567212716
-0.234319919728
-0.122491111854
-0.0953047184474
0.322129670365
0.361074161536
-0.460330321632
-0.763918293355
-0.357304168723
-0.491700859101
0.478914760232
-0.973849893013
-0.561530463615
0.671115139699
-0.0399919170565
0.133775965689
0.124522476347
-0.888721279276
0.109205859737
0.692235892151
-0.906166205262
-0.57829115332
-0.405886070305
0.310635994117
-0.487850659691
-0.741256282632
0.605068522802
-0.222213926132
0.617843122276
0.0513352016277
0.348448980261
0.621954841171
-0.977326044251
-0.601570441284
-0.599006390645
-0.637973105553
0.531767794213
0.239851560224
0.280867204138
0.907499954452
-0.844808674103
-0.673811716688
0.418106263954
-0.848145304242
0.518280479516
-0.636195698627
0.980724383962
-0.465323452932
0.115189701367
0.0321298183165
0.672561880944
-0.82091017094
0.329245227963
-0.240412083273
-0.602791347178
0.996826653288
-0.570072056526
0.05388037589
0.999580183766
-0.956999609092
-0.570353412442
-0.435176270796
0.870899216222
0.715893280098
-0.0173262295671
-0.00718771913149
0.856612276861
-0.587914248483
-0.302240321201
0.891022638329
0.1896854354
0.424842291226
-1.00774016193
-0.930545823177
-0.236570128118
-0.159104745573
0.763525860427
0.978744657105
0.393052195067
-0.426254545261
0.0826633684547
1.01295713099
-0.613394667572
-0.603831681243
0.152614392935
0.81358490119
-0.735344215277
0.258984427101
-0.0345948395474
-0.227746018188
-0.819193158405
0.106795974595
0.730294703038
0.0613913192419
0.599204692448
0.0951909378327
-0.248125136258
-0.0984967324935
0.271687835414
0.0860387806036
-0.53214936971
1.02741712551
0.341105174272
0.255075758384
-0.789885490947
-0.209218270066
0.502581677897
-0.888422404688
-0.483724100757
-0.293178166328
-0.245373369599
0.913492285439
0.61616151259
0.616151668489
0.766166379522
-0.257679275593
-0.449216394652
0.399407187505
0.971623841726
-0.473282226998
-0.178504508537
-0.0847400076308
1.00041754693
-0.231330096552
0.772867439033
0.955256162863
-0.841410397232
